{"learner":{"attributes":{"best_iteration":"999","best_ntree_limit":"1000","scikit_learn":"{\"n_estimators\": 1000, \"objective\": \"reg:squarederror\", \"max_depth\": null, \"learning_rate\": null, \"verbosity\": null, \"booster\": null, \"tree_method\": null, \"gamma\": null, \"min_child_weight\": null, \"max_delta_step\": null, \"subsample\": null, \"colsample_bytree\": null, \"colsample_bylevel\": null, \"colsample_bynode\": null, \"reg_alpha\": null, \"reg_lambda\": null, \"scale_pos_weight\": null, \"base_score\": null, \"missing\": NaN, \"num_parallel_tree\": null, \"random_state\": null, \"n_jobs\": null, \"monotone_constraints\": null, \"interaction_constraints\": null, \"importance_type\": null, \"gpu_id\": null, \"validate_parameters\": null, \"predictor\": null, \"enable_categorical\": false, \"_estimator_type\": \"regressor\"}"},"feature_names":[],"feature_types":[],"gradient_booster":{"model":{"gbtree_model_param":{"num_trees":"1000","size_leaf_vector":"0"},"tree_info":[0,0,0,0,0,0,0,0,0,0,0,0,0,0,0,0,0,0,0,0,0,0,0,0,0,0,0,0,0,0,0,0,0,0,0,0,0,0,0,0,0,0,0,0,0,0,0,0,0,0,0,0,0,0,0,0,0,0,0,0,0,0,0,0,0,0,0,0,0,0,0,0,0,0,0,0,0,0,0,0,0,0,0,0,0,0,0,0,0,0,0,0,0,0,0,0,0,0,0,0,0,0,0,0,0,0,0,0,0,0,0,0,0,0,0,0,0,0,0,0,0,0,0,0,0,0,0,0,0,0,0,0,0,0,0,0,0,0,0,0,0,0,0,0,0,0,0,0,0,0,0,0,0,0,0,0,0,0,0,0,0,0,0,0,0,0,0,0,0,0,0,0,0,0,0,0,0,0,0,0,0,0,0,0,0,0,0,0,0,0,0,0,0,0,0,0,0,0,0,0,0,0,0,0,0,0,0,0,0,0,0,0,0,0,0,0,0,0,0,0,0,0,0,0,0,0,0,0,0,0,0,0,0,0,0,0,0,0,0,0,0,0,0,0,0,0,0,0,0,0,0,0,0,0,0,0,0,0,0,0,0,0,0,0,0,0,0,0,0,0,0,0,0,0,0,0,0,0,0,0,0,0,0,0,0,0,0,0,0,0,0,0,0,0,0,0,0,0,0,0,0,0,0,0,0,0,0,0,0,0,0,0,0,0,0,0,0,0,0,0,0,0,0,0,0,0,0,0,0,0,0,0,0,0,0,0,0,0,0,0,0,0,0,0,0,0,0,0,0,0,0,0,0,0,0,0,0,0,0,0,0,0,0,0,0,0,0,0,0,0,0,0,0,0,0,0,0,0,0,0,0,0,0,0,0,0,0,0,0,0,0,0,0,0,0,0,0,0,0,0,0,0,0,0,0,0,0,0,0,0,0,0,0,0,0,0,0,0,0,0,0,0,0,0,0,0,0,0,0,0,0,0,0,0,0,0,0,0,0,0,0,0,0,0,0,0,0,0,0,0,0,0,0,0,0,0,0,0,0,0,0,0,0,0,0,0,0,0,0,0,0,0,0,0,0,0,0,0,0,0,0,0,0,0,0,0,0,0,0,0,0,0,0,0,0,0,0,0,0,0,0,0,0,0,0,0,0,0,0,0,0,0,0,0,0,0,0,0,0,0,0,0,0,0,0,0,0,0,0,0,0,0,0,0,0,0,0,0,0,0,0,0,0,0,0,0,0,0,0,0,0,0,0,0,0,0,0,0,0,0,0,0,0,0,0,0,0,0,0,0,0,0,0,0,0,0,0,0,0,0,0,0,0,0,0,0,0,0,0,0,0,0,0,0,0,0,0,0,0,0,0,0,0,0,0,0,0,0,0,0,0,0,0,0,0,0,0,0,0,0,0,0,0,0,0,0,0,0,0,0,0,0,0,0,0,0,0,0,0,0,0,0,0,0,0,0,0,0,0,0,0,0,0,0,0,0,0,0,0,0,0,0,0,0,0,0,0,0,0,0,0,0,0,0,0,0,0,0,0,0,0,0,0,0,0,0,0,0,0,0,0,0,0,0,0,0,0,0,0,0,0,0,0,0,0,0,0,0,0,0,0,0,0,0,0,0,0,0,0,0,0,0,0,0,0,0,0,0,0,0,0,0,0,0,0,0,0,0,0,0,0,0,0,0,0,0,0,0,0,0,0,0,0,0,0,0,0,0,0,0,0,0,0,0,0,0,0,0,0,0,0,0,0,0,0,0,0,0,0,0,0,0,0,0,0,0,0,0,0,0,0,0,0,0,0,0,0,0,0,0,0,0,0,0,0,0,0,0,0,0,0,0,0,0,0,0,0,0,0,0,0,0,0,0,0,0,0,0,0,0,0,0,0,0,0,0,0,0,0,0,0,0,0,0,0,0,0,0,0,0,0,0,0,0,0,0,0,0,0,0,0,0,0,0,0,0,0,0,0,0,0,0,0,0,0,0,0,0,0,0,0,0,0,0,0,0,0,0,0,0,0,0,0,0,0,0,0,0,0,0,0,0,0,0,0,0,0,0,0,0,0,0,0,0,0,0,0,0,0,0,0,0,0,0,0,0,0,0,0,0,0,0,0,0,0,0,0,0,0,0,0,0,0,0,0,0,0,0,0,0,0,0,0,0,0,0,0,0,0,0,0,0,0,0,0,0,0,0,0,0,0,0,0,0,0,0,0,0,0,0,0,0,0,0,0,0,0,0,0,0,0,0,0,0,0,0,0,0,0,0],"trees":[{"base_weights":[2.6682394E1,2.2878653E1,2.8452646E1,2.1771639E1,2.4326736E1,2.7447176E1,2.9579222E1],"categories":[],"categories_nodes":[],"categories_segments":[],"categories_sizes":[],"default_left":[true,true,true,false,false,false,false],"id":0,"left_children":[1,3,5,-1,-1,-1,-1],"loss_changes":[1.1940875E4,4.3059375E2,6.289375E2,0E0,0E0,0E0,0E0],"parents":[2147483647,0,0,1,1,2,2],"right_children":[2,4,6,-1,-1,-1,-1],"split_conditions":[2.6400501E1,2.3699E1,2.9053034E1,6.5314918E0,7.2980213E0,8.234153E0,8.873767E0],"split_indices":[12,12,12,0,0,0,0],"split_type":[0,0,0,0,0,0,0],"sum_hessian":[1.869E3,5.98E2,1.271E3,3.48E2,2.5E2,6.85E2,5.86E2],"tree_param":{"num_deleted":"0","num_feature":"24","num_nodes":"7","size_leaf_vector":"0"}},{"base_weights":[1.869422E1,1.5768025E1,1.9842869E1,1.5019875E1,1.6629103E1,2.0791275E1,1.9068035E1],"categories":[],"categories_nodes":[],"categories_segments":[],"categories_sizes":[],"default_left":[true,true,true,false,false,false,false],"id":1,"left_children":[1,3,5,-1,-1,-1,-1],"loss_changes":[5.9725E3,9.2953125E1,5.875625E2,0E0,0E0,0E0,0E0],"parents":[2147483647,0,0,1,1,2,2],"right_children":[2,4,6,-1,-1,-1,-1],"split_conditions":[2.5574501E1,2.3154335E1,2.62895E1,4.5059624E0,4.988731E0,6.237383E0,5.720411E0],"split_indices":[12,0,7,0,0,0,0],"split_type":[0,0,0,0,0,0,0],"sum_hessian":[1.869E3,5.31E2,1.338E3,2.94E2,2.37E2,5.9E2,7.48E2],"tree_param":{"num_deleted":"0","num_feature":"24","num_nodes":"7","size_leaf_vector":"0"}},{"base_weights":[1.3097425E1,1.1103905E1,1.3976223E1,1.0717353E1,1.2191821E1,1.3535044E1,1.4997909E1,1.0182823E1,1.1691687E1],"categories":[],"categories_nodes":[],"categories_segments":[],"categories_sizes":[],"default_left":[true,true,true,true,false,false,false,false,false],"id":2,"left_children":[1,3,5,7,-1,-1,-1,-1,-1],"loss_changes":[3.120875E3,1.1199219E2,3.8026562E2,1.0697656E2,0E0,0E0,0E0,0E0,0E0],"parents":[2147483647,0,0,1,1,2,2,3,3],"right_children":[2,4,6,8,-1,-1,-1,-1,-1],"split_conditions":[2.6112E1,2.63175E1,2.9775002E1,2.90495E1,3.6575465E0,4.0605135E0,4.499373E0,3.054847E0,3.5075061E0],"split_indices":[0,23,0,14,0,0,0,0,0],"split_type":[0,0,0,0,0,0,0,0,0],"sum_hessian":[1.869E3,5.76E2,1.293E3,4.33E2,1.43E2,9.13E2,3.8E2,2.87E2,1.46E2],"tree_param":{"num_deleted":"0","num_feature":"24","num_nodes":"9","size_leaf_vector":"0"}},{"base_weights":[9.178241E0,7.97594E0,9.941138E0,7.6746182E0,8.963053E0,9.665212E0,1.0731265E1,8.467509E0,7.328114E0,9.678376E0,4.4448423E0,3.91274E0,7.3526087E0],"categories":[],"categories_nodes":[],"categories_segments":[],"categories_sizes":[],"default_left":[true,true,true,true,false,true,false,false,true,false,false,false,false],"id":3,"left_children":[1,3,5,7,-1,9,-1,-1,11,-1,-1,-1,-1],"loss_changes":[1.6359375E3,1.4864062E2,1.4482031E2,9.372656E1,0E0,1.5734375E1,0E0,0E0,4.859375E0,0E0,0E0,0E0,0E0],"parents":[2147483647,0,0,1,1,2,2,3,3,5,5,8,8],"right_children":[2,4,6,8,-1,10,-1,-1,12,-1,-1,-1,-1],"split_conditions":[2.73055E1,2.7296E1,3.02585E1,2.5428501E1,2.688916E0,3.0098818E1,3.2193797E0,2.540253E0,2.6916298E1,2.903513E0,1.3334527E0,1.173822E0,2.2057827E0],"split_indices":[12,23,12,9,0,5,0,0,5,0,0,0,0],"split_type":[0,0,0,0,0,0,0,0,0,0,0,0,0],"sum_hessian":[1.869E3,7.3E2,1.139E3,5.66E2,1.64E2,8.54E2,2.85E2,1.65E2,4.01E2,8.51E2,3E0,4E0,3.97E2],"tree_param":{"num_deleted":"0","num_feature":"24","num_nodes":"13","size_leaf_vector":"0"}},{"base_weights":[6.4333596E0,5.505062E0,6.9434752E0,5.3989286E0,7.325348E0,6.751842E0,7.56265E0,4.871491E0,5.626757E0,6.4337E0,6.976561E0,4.3421845E0,5.205345E0,5.8078475E0,5.0818276E0,4.226275E0,6.468232E0,4.370632E0,1.0047407E0,5.817014E0,1.4372396E0,3.6535459E0,5.2719164E0,2.6015441E0,6.481493E0,4.3944435E0,1.2209578E0,5.8250856E0,1.6211405E0,6.5045834E-1,3.8005853E0],"categories":[],"categories_nodes":[],"categories_segments":[],"categories_sizes":[],"default_left":[true,true,true,true,false,true,false,true,true,true,false,true,false,true,true,false,true,true,false,true,false,true,false,false,false,false,false,false,false,false,false],"id":4,"left_children":[1,3,5,7,-1,9,-1,11,13,15,-1,17,-1,19,21,-1,23,25,-1,27,-1,29,-1,-1,-1,-1,-1,-1,-1,-1,-1],"loss_changes":[8.472969E2,8.950391E1,9.167969E1,4.889453E1,0E0,2.1460938E1,0E0,1.2562988E1,1.3609375E1,2.9257812E0,0E0,3.4888916E0,0E0,4.4990234E0,1.2504395E1,0E0,3.0839844E0,7.8430176E-1,0E0,1.3935547E0,0E0,5.034607E0,0E0,0E0,0E0,0E0,0E0,0E0,0E0,0E0,0E0],"parents":[2147483647,0,0,1,1,2,2,3,3,5,5,7,7,8,8,9,9,11,11,13,13,14,14,16,16,17,17,19,19,21,21],"right_children":[2,4,6,8,-1,10,-1,12,14,16,-1,18,-1,20,22,-1,24,26,-1,28,-1,30,-1,-1,-1,-1,-1,-1,-1,-1,-1],"split_conditions":[2.6984001E1,2.8864E1,3.0296001E1,2.22435E1,2.1976044E0,2.83225E1,2.2687953E0,2.84735E1,3.0505001E1,2.20975E1,2.0929685E0,2.6090664E1,1.5616037E0,2.698E1,2.24265E1,1.2678826E0,2.2985E1,2.9783E1,3.0142224E-1,3.3136E1,4.3117192E-1,1.9751E1,1.581575E0,7.804633E-1,1.944448E0,1.3183331E0,3.6628735E-1,1.7475258E0,4.8634216E-1,1.9513752E-1,1.1401756E0],"split_indices":[0,23,0,12,0,23,0,19,5,23,0,0,0,0,23,0,12,7,0,3,0,0,0,0,0,0,0,0,0,0,0],"split_type":[0,0,0,0,0,0,0,0,0,0,0,0,0,0,0,0,0,0,0,0,0,0,0,0,0,0,0,0,0,0,0],"sum_hessian":[1.869E3,6.67E2,1.202E3,6.34E2,3.3E1,9.27E2,2.75E2,1.98E2,4.36E2,3.96E2,5.31E2,8.2E1,1.16E2,3.2E2,1.16E2,8E0,3.88E2,8.1E1,1E0,3.19E2,1E0,1.6E1,1E2,2E0,3.86E2,8E1,1E0,3.18E2,1E0,1E0,1.5E1],"tree_param":{"num_deleted":"0","num_feature":"24","num_nodes":"31","size_leaf_vector":"0"}},{"base_weights":[4.5138764E0,3.9666007E0,4.96312E0,3.41275E0,4.1635594E0,4.8359284E0,5.459217E0,3.7831755E0,2.9585009E0,4.065971E0,5.380771E0,4.8565197E0,3.4938314E0,5.3044224E-1,3.8056736E0,3.0747573E0,1.3509564E0,4.2964725E0,3.7410014E0,6.845475E0,4.791718E0,1.5844421E0,3.8125796E0,3.8277757E0,5.767164E-1,3.1190174E0,1.6188682E0,1.9078827E-1,1.4721289E0,1.0719252E0,4.302976E0,3.3081985E0,3.9665968E0,3.9433808E0,1.1214819E0,3.8492463E0,6.363926E-1,4.3089724E0,1.1621113E0,3.3260238E0,8.519535E-1,4.033656E0,1.9437981E0],"categories":[],"categories_nodes":[],"categories_segments":[],"categories_sizes":[],"default_left":[true,true,true,true,true,true,false,true,true,true,true,false,true,false,true,true,true,true,true,false,false,false,true,true,false,false,false,false,false,false,true,true,true,false,false,false,false,false,false,false,false,false,false],"id":5,"left_children":[1,3,5,7,9,11,-1,13,15,17,19,-1,21,-1,23,25,27,29,31,-1,-1,-1,33,35,-1,-1,-1,-1,-1,-1,37,39,41,-1,-1,-1,-1,-1,-1,-1,-1,-1,-1],"loss_changes":[4.400703E2,7.829492E1,3.815039E1,2.7171875E1,5.1887695E1,5.7773438E0,0E0,6.909424E0,1.5843079E1,2.7296875E1,4.29834E0,0E0,3.6970215E0,0E0,6.4277344E0,1.3300781E0,9.8435783E-1,2.3496094E0,1.1091797E1,0E0,0E0,0E0,1.535492E-1,5.772827E0,0E0,0E0,0E0,0E0,0E0,0E0,1.2265625E0,1.1507568E0,1.3591553E1,0E0,0E0,0E0,0E0,0E0,0E0,0E0,0E0,0E0,0E0],"parents":[2147483647,0,0,1,1,2,2,3,3,4,4,5,5,7,7,8,8,9,9,10,10,12,12,14,14,15,15,16,16,17,17,18,18,22,22,23,23,30,30,31,31,32,32],"right_children":[2,4,6,8,10,12,-1,14,16,18,20,-1,22,-1,24,26,28,30,32,-1,-1,-1,34,36,-1,-1,-1,-1,-1,-1,38,40,42,-1,-1,-1,-1,-1,-1,-1,-1,-1,-1],"split_conditions":[2.78405E1,2.25965E1,3.0672E1,2.35235E1,2.9182526E1,2.9832E1,1.6377652E0,2.82305E1,2.4437E1,2.98475E1,2.77095E1,1.4569559E0,2.37295E1,1.5913267E-1,2.8001999E1,2.4193E1,2.7461498E1,2.03745E1,2.8481998E1,2.0536427E0,1.4375155E0,4.7533265E-1,2.9210499E1,3.1050499E1,1.7301494E-1,9.3570524E-1,4.856605E-1,5.723648E-2,4.4163868E-1,3.2157755E-1,2.78396E1,2.6078997E1,3.1550499E1,1.1830143E0,3.364446E-1,1.154774E0,1.9091779E-1,1.2926917E0,3.486334E-1,9.978072E-1,2.5558606E-1,1.2100968E0,5.831394E-1],"split_indices":[0,23,12,10,23,16,0,16,12,5,10,0,23,0,21,0,14,1,20,0,0,0,5,5,0,0,0,0,0,0,0,0,15,0,0,0,0,0,0,0,0,0,0],"split_type":[0,0,0,0,0,0,0,0,0,0,0,0,0,0,0,0,0,0,0,0,0,0,0,0,0,0,0,0,0,0,0,0,0,0,0,0,0,0,0,0,0,0,0],"sum_hessian":[1.869E3,8.47E2,1.022E3,2.27E2,6.2E2,8.22E2,2E2,1.21E2,1.06E2,5.78E2,4.2E1,8.07E2,1.5E1,1E0,1.2E2,9.8E1,8E0,3.31E2,2.47E2,9E0,3.3E1,3E0,1.2E1,1.19E2,1E0,9.4E1,4E0,1E0,7E0,1E0,3.3E2,9E1,1.57E2,1.1E1,1E0,1.18E2,1E0,3.29E2,1E0,8.9E1,1E0,1.51E2,6E0],"tree_param":{"num_deleted":"0","num_feature":"24","num_nodes":"43","size_leaf_vector":"0"}},{"base_weights":[3.168905E0,2.7917328E0,3.4872975E0,2.7042897E0,3.5019171E0,3.7138727E0,3.3149793E0,2.6503682E0,3.8667154E0,4.9049554E0,3.2051935E0,3.4849308E0,3.9504592E0,1.0098416E0,3.3291602E0,2.1944435E0,2.7359457E0,4.0592375E0,1.504251E0,1.8744534E0,3.3305001E0,3.4917376E0,9.766741E-1,2.2370403E0,3.9824293E0,2.9665859E0,3.419461E0,2.3779855E0,1.6899271E0,2.6494584E0,3.0843832E0,4.158191E0,6.442671E-1,7.9150325E-1,2.0707958E0,3.367021E0,1.3925253E0,2.3014019E0,3.0586994E0,3.4226897E0,9.7358704E-1,1.1185434E0,2.4574683E0,1.7230142E0,2.6593876E-1,2.4268506E0,2.8325725E0,3.123518E0,5.560837E-1,2.0713158E0,4.3257637E0],"categories":[],"categories_nodes":[],"categories_segments":[],"categories_sizes":[],"default_left":[true,true,true,true,true,true,true,true,true,false,true,true,true,false,true,true,true,true,false,true,true,false,false,false,false,true,true,true,true,true,true,true,false,false,false,false,false,false,false,false,false,false,false,false,false,false,false,false,false,false,false],"id":6,"left_children":[1,3,5,7,9,11,13,15,17,-1,19,21,23,-1,25,27,29,31,-1,33,35,-1,-1,-1,-1,37,39,41,43,45,47,49,-1,-1,-1,-1,-1,-1,-1,-1,-1,-1,-1,-1,-1,-1,-1,-1,-1,-1,-1],"loss_changes":[2.1483008E2,4.3998535E1,2.712207E1,3.8077637E1,2.2163452E1,9.415527E0,1.5695801E1,2.2868652E1,8.448334E0,0E0,6.763672E0,4.482422E-1,2.2111816E0,0E0,8.812988E0,7.2785645E0,1.0481934E1,7.120819E0,0E0,2.7462006E-1,2.6568604E-1,0E0,0E0,0E0,0E0,4.9719238E-1,2.7685547E-1,5.9602356E0,1.2379532E0,1.3629395E1,9.8396E0,8.3166504E-1,0E0,0E0,0E0,0E0,0E0,0E0,0E0,0E0,0E0,0E0,0E0,0E0,0E0,0E0,0E0,0E0,0E0,0E0,0E0],"parents":[2147483647,0,0,1,1,2,2,3,3,4,4,5,5,6,6,7,7,8,8,10,10,11,11,12,12,14,14,15,15,16,16,17,17,19,19,20,20,25,25,26,26,27,27,28,28,29,29,30,30,31,31],"right_children":[2,4,6,8,10,12,14,16,18,-1,20,22,24,-1,26,28,30,32,-1,34,36,-1,-1,-1,-1,38,40,42,44,46,48,50,-1,-1,-1,-1,-1,-1,-1,-1,-1,-1,-1,-1,-1,-1,-1,-1,-1,-1,-1],"split_conditions":[2.7865932E1,2.8592E1,2.4942501E1,3.1432999E1,2.7195E1,2.8314E1,2.2044E1,2.16555E1,3.1671501E1,1.4714867E0,2.81735E1,3.1715E1,2.82215E1,3.0295247E-1,2.8192581E1,2.7332E1,2.7749771E1,3.00755E1,4.5127532E-1,2.0973E1,3.2810997E1,1.0475214E0,2.9300225E-1,6.711121E-1,1.1947289E0,2.63265E1,3.0177E1,2.0979E1,3.20425E1,2.5571E1,3.2038498E1,2.79175E1,1.9328013E-1,2.3745099E-1,6.2123877E-1,1.0101063E0,4.177576E-1,6.9042057E-1,9.176099E-1,1.026807E0,2.920761E-1,3.3556303E-1,7.372405E-1,5.169043E-1,7.978163E-2,7.280552E-1,8.497718E-1,9.370554E-1,1.6682512E-1,6.2139475E-1,1.2977291E0],"split_indices":[12,23,20,14,11,16,23,23,2,0,9,2,12,0,23,9,13,5,0,14,18,0,0,0,0,13,2,0,16,23,15,17,0,0,0,0,0,0,0,0,0,0,0,0,0,0,0,0,0,0,0],"split_type":[0,0,0,0,0,0,0,0,0,0,0,0,0,0,0,0,0,0,0,0,0,0,0,0,0,0,0,0,0,0,0,0,0,0,0,0,0,0,0,0,0,0,0,0,0,0,0,0,0,0,0],"sum_hessian":[1.869E3,8.6E2,1.009E3,7.7E2,9E1,4.27E2,5.82E2,7.39E2,3.1E1,1.3E1,7.7E1,2.25E2,2.02E2,4E0,5.78E2,1.21E2,6.18E2,2.8E1,3E0,8E0,6.9E1,2.24E2,1E0,5E0,1.97E2,1.22E2,4.56E2,8.6E1,3.5E1,5.02E2,1.16E2,2.7E1,1E0,2E0,6E0,6.7E1,2E0,1.8E1,1.04E2,4.55E2,1E0,6E0,8E1,3.4E1,1E0,2.33E2,2.69E2,1.14E2,2E0,3E0,2.4E1],"tree_param":{"num_deleted":"0","num_feature":"24","num_nodes":"51","size_leaf_vector":"0"}},{"base_weights":[2.2273824E0,1.9768883E0,2.4678853E0,1.8215454E0,2.364812E0,2.3824823E0,2.7842703E0,3.0509186E-1,1.8349502E0,2.2766066E0,2.8668E0,2.404013E0,1.6576252E0,2.5151443E0,3.0125058E0,9.188776E-1,-3.8496685E-1,1.727238E0,2.057056E0,2.0016017E0,2.4438772E0,2.9126577E0,6.53821E-1,2.2441237E0,2.4752424E0,1.9339843E0,8.28614E-1,2.5306654E0,5.203314E-1,2.8646727E0,3.9616246E0,-4.6796227E-1,-6.79903E-2,1.740824E0,1.7535706E-1,3.5800934E-3,2.0669112E0,2.5332334E0,1.6400455E0,2.7541542E-1,2.4578998E0,2.2574852E0,9.047847E-1,2.2488139E0,2.5511758E0,3.4002686E-1,1.5295836E0,9.558716E-1,2.5542536E0,1.5074666E0,1.85241E0,4.5483208E-1,-1.6257031E-1,2.4724898E0,1.9819089E0,2.6410408E0,5.029392E-1,2.0069885E-1,1.6621642E0,2.4814816E0,1.0652266E0,2.2766566E0,1.1527246E0,5.1139736E-1,2.258102E0,1.4819279E0,2.5679903E0,-1.1765194E-1,4.55093E-1,2.5680676E0,6.416931E-1],"categories":[],"categories_nodes":[],"categories_segments":[],"categories_sizes":[],"default_left":[true,true,true,true,true,true,true,true,true,true,true,true,true,true,true,false,true,true,true,true,true,false,false,true,true,false,true,true,false,false,false,false,false,true,true,false,true,true,true,false,true,true,false,true,true,true,false,false,true,false,false,false,false,false,false,false,false,false,false,false,false,false,false,false,false,false,false,false,false,false,false],"id":7,"left_children":[1,3,5,7,9,11,13,15,17,19,21,23,25,27,29,-1,31,33,35,37,39,-1,-1,41,43,-1,45,47,-1,-1,-1,-1,-1,49,51,-1,53,55,57,-1,59,61,-1,63,65,67,-1,-1,69,-1,-1,-1,-1,-1,-1,-1,-1,-1,-1,-1,-1,-1,-1,-1,-1,-1,-1,-1,-1,-1,-1],"loss_changes":[1.0777832E2,5.119287E1,1.9035645E1,1.2897217E1,4.98584E0,7.7978516E0,4.4622803E0,3.3185747E0,1.2140869E1,5.5043945E0,1.6474915E0,2.7705078E0,4.125099E0,1.6554565E0,2.8226929E0,0E0,7.341349E-2,9.140381E0,4.222229E0,1.3336914E1,3.458496E0,0E0,0E0,2.1807861E0,2.7907715E0,0E0,2.219778E0,1.0874634E0,0E0,0E0,0E0,0E0,0E0,8.769043E0,5.4615355E-1,0E0,2.2705688E0,6.3325653E0,1.4810944E0,0E0,1.7902832E0,2.3105469E0,0E0,9.914551E-1,2.7387695E0,3.6952263E-1,0E0,0E0,8.0914307E-1,0E0,0E0,0E0,0E0,0E0,0E0,0E0,0E0,0E0,0E0,0E0,0E0,0E0,0E0,0E0,0E0,0E0,0E0,0E0,0E0,0E0,0E0],"parents":[2147483647,0,0,1,1,2,2,3,3,4,4,5,5,6,6,7,7,8,8,9,9,10,10,11,11,12,12,13,13,14,14,16,16,17,17,18,18,19,19,20,20,23,23,24,24,26,26,27,27,33,33,34,34,36,36,37,37,38,38,40,40,41,41,43,43,44,44,45,45,48,48],"right_children":[2,4,6,8,10,12,14,16,18,20,22,24,26,28,30,-1,32,34,36,38,40,-1,-1,42,44,-1,46,48,-1,-1,-1,-1,-1,50,52,-1,54,56,58,-1,60,62,-1,64,66,68,-1,-1,70,-1,-1,-1,-1,-1,-1,-1,-1,-1,-1,-1,-1,-1,-1,-1,-1,-1,-1,-1,-1,-1,-1],"split_conditions":[2.8048588E1,2.877575E1,2.8461498E1,2.680981E1,3.1584E1,3.1514E1,2.946019E1,2.6715153E1,2.89155E1,2.43785E1,3.1050499E1,2.2710999E1,2.7821E1,2.99875E1,2.91145E1,2.756633E-1,2.6951794E1,2.86765E1,1.86685E1,2.6359001E1,1.9279E1,8.7379736E-1,1.9614631E-1,2.9231499E1,2.37655E1,5.801953E-1,3.1883999E1,2.0956E1,1.5609942E-1,8.594018E-1,1.1884874E0,-1.4038868E-1,-2.0397091E-2,2.2228E1,3.0387001E1,1.0740281E-3,2.749E1,2.9076E1,2.06245E1,8.262463E-2,2.9563E1,2.265E1,2.714354E-1,2.094E1,2.13125E1,2.1271E1,4.588751E-1,2.867615E-1,2.98825E1,4.5224E-1,5.55723E-1,1.3644964E-1,-4.8771095E-2,7.4174696E-1,5.945727E-1,7.9231226E-1,1.5088177E-1,6.0209658E-2,4.9864927E-1,7.444445E-1,3.1956798E-1,6.82997E-1,3.458174E-1,1.5341921E-1,6.774306E-1,4.4457838E-1,7.703971E-1,-3.5295583E-2,1.3652791E-1,7.704203E-1,1.9250794E-1],"split_indices":[23,13,16,7,14,6,23,8,20,23,4,17,16,20,17,0,0,13,12,12,9,0,0,3,14,0,18,20,0,0,0,0,0,12,3,0,9,19,9,0,19,17,0,13,21,1,0,0,16,0,0,0,0,0,0,0,0,0,0,0,0,0,0,0,0,0,0,0,0,0,0],"split_type":[0,0,0,0,0,0,0,0,0,0,0,0,0,0,0,0,0,0,0,0,0,0,0,0,0,0,0,0,0,0,0,0,0,0,0,0,0,0,0,0,0,0,0,0,0,0,0,0,0,0,0,0,0,0,0,0,0,0,0,0,0,0,0,0,0,0,0,0,0,0,0],"sum_hessian":[1.869E3,9.2E2,9.49E2,6.61E2,2.59E2,7.54E2,1.95E2,6E0,6.55E2,2.25E2,3.4E1,7.3E2,2.4E1,9.5E1,1E2,3E0,3E0,4.47E2,2.08E2,9E1,1.35E2,3.3E1,1E0,2.35E2,4.95E2,1.7E1,7E0,9.4E1,1E0,9E1,1E1,2E0,1E0,4.43E2,4E0,1E0,2.07E2,3.4E1,5.6E1,1E0,1.34E2,2.32E2,3E0,1.32E2,3.63E2,5E0,2E0,2E0,9.2E1,1.48E2,2.95E2,2E0,2E0,3.1E1,1.76E2,3.2E1,2E0,1E0,5.5E1,1.31E2,3E0,2.27E2,5E0,1E0,1.31E2,7E0,3.56E2,1E0,4E0,9.1E1,1E0],"tree_param":{"num_deleted":"0","num_feature":"24","num_nodes":"71","size_leaf_vector":"0"}},{"base_weights":[1.5667648E0,1.2800633E0,1.6724712E0,1.09422E0,1.5302675E0,1.6162461E0,2.070903E0,1.1617522E0,5.4164183E-1,1.5778097E0,5.9848946E-1,1.4990689E0,1.7916931E0,3.1436036E0,2.003482E0,7.3486596E-1,1.2286853E0,7.003689E-1,-5.190487E-1,1.7968891E0,1.3387704E0,1.0031227E0,1.6616249E-1,1.0600652E0,1.5191355E0,1.5906665E0,1.950425E0,1.1607606E0,2.040689E0,8.179518E-1,-1.7585135E-1,1.1036855E0,1.6040788E0,1.0048548E-1,9.139408E-1,-6.471856E-1,-2.1789551E-1,1.3795013E0,2.179721E0,1.7942845E0,1.1892059E0,2.5387383E-1,1.1021976E0,-1.05547905E-1,2.2903888E-1,1.1128612E0,1.2595432E-1,1.443084E0,1.671247E0,1.4007572E0,1.7161951E0,1.9639894E0,1.0466105E0,2.341032E-1,1.24733E0,2.06307E0,9.790211E-1,9.8933E-1,2.1293364E-1,-3.5653973E-1,3.2246907E-3,1.4088707E0,9.77665E-1,-5.5685234E-1,1.6553577E0,2.6895747E-1,-1.7734385E-1,1.0297092E0,-1.6249593E-1,1.4251779E0,-4.7500324E-1,1.1512601E0,2.340549E0,9.7482425E-1,1.9677553E0,9.609396E-1,1.5496327E0,6.0124397E-2,2.5079688E-1,2.3763657E-1,1.1327858E0,1.3001673E0,1.5166188E0,8.164166E-1,1.6991277E0,1.4584203E0,7.878443E-1,7.9838943E-1,1.7477838E0,1.9681704E0,4.48905E-1,2.837073E-1,1.3571353E0,2.069323E0,5.7819366E-1],"categories":[],"categories_nodes":[],"categories_segments":[],"categories_sizes":[],"default_left":[true,true,true,true,true,true,true,true,true,true,true,true,true,false,true,true,true,true,true,true,true,true,true,true,true,true,true,true,true,true,true,true,true,true,true,false,false,true,true,true,true,false,false,false,true,true,false,true,true,true,true,true,true,false,false,true,false,false,false,false,false,false,false,false,false,false,false,false,false,false,false,false,false,false,false,false,false,false,false,false,false,false,false,false,false,false,false,false,false,false,false,false,false,false,false],"id":8,"left_children":[1,3,5,7,9,11,13,15,17,19,21,23,25,-1,27,29,31,33,35,37,39,41,43,45,47,49,51,53,55,57,59,61,63,65,67,-1,-1,69,71,73,75,-1,-1,-1,77,79,-1,81,83,85,87,89,91,-1,-1,93,-1,-1,-1,-1,-1,-1,-1,-1,-1,-1,-1,-1,-1,-1,-1,-1,-1,-1,-1,-1,-1,-1,-1,-1,-1,-1,-1,-1,-1,-1,-1,-1,-1,-1,-1,-1,-1,-1,-1],"loss_changes":[5.453125E1,2.19469E1,2.7186523E1,1.0379211E1,8.535645E0,2.1963623E1,5.635071E0,6.58313E0,6.087775E0,8.225159E0,1.9325247E0,4.776367E0,1.2054443E1,0E0,2.5853271E0,3.0192108E0,8.787506E0,3.751708E0,5.192542E-2,1.34513855E1,4.747223E0,1.6557169E-1,1.4376375E-1,1.5859337E0,5.5820312E0,2.7214355E0,1.1442871E0,4.2997646E-1,1.5443726E0,3.4183807E0,1.3057756E-1,5.2376556E0,6.905533E0,4.6895605E-1,2.908907E0,0E0,0E0,5.0817566E0,5.906494E0,1.3512878E0,5.010483E0,0E0,0E0,0E0,6.972462E-3,3.0628204E-1,0E0,2.9465332E0,3.951416E0,2.067154E0,2.2286072E0,7.3809814E-1,1.0363727E0,0E0,0E0,1.5917969E-1,0E0,0E0,0E0,0E0,0E0,0E0,0E0,0E0,0E0,0E0,0E0,0E0,0E0,0E0,0E0,0E0,0E0,0E0,0E0,0E0,0E0,0E0,0E0,0E0,0E0,0E0,0E0,0E0,0E0,0E0,0E0,0E0,0E0,0E0,0E0,0E0,0E0,0E0,0E0],"parents":[2147483647,0,0,1,1,2,2,3,3,4,4,5,5,6,6,7,7,8,8,9,9,10,10,11,11,12,12,14,14,15,15,16,16,17,17,18,18,19,19,20,20,21,21,22,22,23,23,24,24,25,25,26,26,27,27,28,28,29,29,30,30,31,31,32,32,33,33,34,34,37,37,38,38,39,39,40,40,44,44,45,45,47,47,48,48,49,49,50,50,51,51,52,52,55,55],"right_children":[2,4,6,8,10,12,14,16,18,20,22,24,26,-1,28,30,32,34,36,38,40,42,44,46,48,50,52,54,56,58,60,62,64,66,68,-1,-1,70,72,74,76,-1,-1,-1,78,80,-1,82,84,86,88,90,92,-1,-1,94,-1,-1,-1,-1,-1,-1,-1,-1,-1,-1,-1,-1,-1,-1,-1,-1,-1,-1,-1,-1,-1,-1,-1,-1,-1,-1,-1,-1,-1,-1,-1,-1,-1,-1,-1,-1,-1,-1,-1],"split_conditions":[2.53675E1,2.9593E1,2.9163E1,2.38685E1,2.98905E1,2.9217E1,2.6535E1,2.9456501E1,3.0672E1,2.6359001E1,3.08765E1,2.3245E1,2.27085E1,9.430811E-1,2.16445E1,2.9361E1,2.84545E1,2.16005E1,3.08185E1,2.21515E1,2.6211498E1,2.61385E1,2.92845E1,2.3174E1,2.94015E1,3.0539001E1,3.1432999E1,2.9595001E1,2.941286E1,2.2426E1,2.1365501E1,2.661E1,2.386E1,2.5447E1,2.8991001E1,-1.941557E-1,-6.536865E-2,2.2096E1,2.11055E1,2.8777E1,2.81965E1,7.616215E-2,3.306593E-1,-3.166437E-2,2.3321499E1,2.661E1,3.7786298E-2,2.3932999E1,2.61105E1,2.8906E1,2.3742E1,3.2810997E1,2.63025E1,7.023096E-2,3.74199E-1,3.25995E1,2.9370633E-1,2.96799E-1,6.388009E-2,-1.0696192E-1,9.6740725E-4,4.2266122E-1,2.9329953E-1,-1.6705571E-1,4.9660733E-1,8.068724E-2,-5.3203154E-2,3.0891278E-1,-4.874878E-2,4.275534E-1,-1.4250098E-1,3.4537804E-1,7.021647E-1,2.924473E-1,5.903266E-1,2.882819E-1,4.6488982E-1,1.803732E-2,7.523907E-2,7.129097E-2,3.3983576E-1,3.900502E-1,4.5498568E-1,2.4492499E-1,5.097383E-1,4.375261E-1,2.363533E-1,2.3951684E-1,5.2433515E-1,5.904511E-1,1.3467151E-1,8.511219E-2,4.071406E-1,6.207969E-1,1.734581E-1],"split_indices":[23,14,15,12,5,23,12,16,18,12,16,18,18,0,10,19,21,23,4,11,0,1,2,18,9,23,18,3,20,1,0,21,10,12,9,0,0,11,23,4,0,0,0,0,0,14,0,3,7,14,4,20,0,0,0,1,0,0,0,0,0,0,0,0,0,0,0,0,0,0,0,0,0,0,0,0,0,0,0,0,0,0,0,0,0,0,0,0,0,0,0,0,0,0,0],"split_type":[0,0,0,0,0,0,0,0,0,0,0,0,0,0,0,0,0,0,0,0,0,0,0,0,0,0,0,0,0,0,0,0,0,0,0,0,0,0,0,0,0,0,0,0,0,0,0,0,0,0,0,0,0,0,0,0,0,0,0,0,0,0,0,0,0,0,0,0,0,0,0,0,0,0,0,0,0,0,0,0,0,0,0,0,0,0,0,0,0,0,0,0,0,0,0],"sum_hessian":[1.869E3,5.07E2,1.362E3,2.94E2,2.13E2,1.198E3,1.64E2,2.61E2,3.3E1,2.02E2,1.1E1,7.24E2,4.74E2,7E0,1.57E2,3.7E1,2.24E2,2.9E1,4E0,1.02E2,1E2,5E0,6E0,3.4E1,6.9E2,2.14E2,2.6E2,8E0,1.49E2,3.4E1,3E0,1.71E2,5.3E1,8E0,2.1E1,2E0,2E0,5.1E1,5.1E1,2.2E1,7.8E1,1E0,4E0,1E0,5E0,3.2E1,2E0,4.67E2,2.23E2,9E1,1.24E2,2.55E2,5E0,1E0,7E0,1.45E2,4E0,2.6E1,8E0,1E0,2E0,4.7E1,1.24E2,1E0,5.2E1,5E0,3E0,1.9E1,2E0,5E1,1E0,8E0,4.3E1,5E0,1.7E1,5E1,2.8E1,1E0,4E0,1E0,3.1E1,1.65E2,3.02E2,8E0,2.15E2,8.1E1,9E0,5E0,1.19E2,2.54E2,1E0,2E0,3E0,1.44E2,1E0],"tree_param":{"num_deleted":"0","num_feature":"24","num_nodes":"95","size_leaf_vector":"0"}},{"base_weights":[1.1031227E0,9.841346E-1,1.2456737E0,8.792943E-1,1.1352491E0,2.8885098E0,1.2364118E0,4.7258595E-1,9.017748E-1,1.0359297E0,1.430841E0,1.1964822E0,1.5031251E0,1.297721E-1,1.0902637E0,-6.1628025E-2,9.1031885E-1,1.0706195E0,4.9929073E-1,6.318654E-1,1.5404457E0,1.4088795E0,1.1466767E0,1.5443466E0,3.615822E-1,3.646248E-1,-2.7606815E-1,9.904051E-2,1.4096669E0,4.7955576E-1,-4.5210886E-1,1.2397887E0,8.8450336E-1,1.0949988E0,4.5754477E-1,1.2894313E-2,7.9761976E-1,1.251594E0,1.061964E-2,1.350436E0,2.026976E0,1.4478081E0,6.98687E-1,3.5755095E-1,1.1647956E0,1.4673007E0,2.1064382E0,-8.918476E-2,4.965701E-1,5.8587766E-1,-1.9505653E-1,-4.9445316E-1,3.2551956E-1,3.333826E-1,-9.020106E-2,2.5290012E-1,1.5226502E0,1.0415268E-1,6.1518097E-1,1.5962628E0,1.0222349E0,5.9388137E-1,9.0687865E-1,1.1101601E0,2.1002293E-1,5.952814E-1,-1.183033E-3,-2.2468694E-1,1.128728E-1,1.8501282E-2,9.375957E-1,3.5885048E-1,1.5369213E0,-5.207661E-1,6.7219687E-1,1.6919677E0,1.00934E0,7.8317577E-1,2.1081393E0,2.2694376E0,1.3815202E0,2.3702192E-1,8.900159E-1,-3.06567E-1,6.269181E-1,1.1103604E0,1.3334281E0,2.4481583E-1,1.4779276E0],"categories":[],"categories_nodes":[],"categories_segments":[],"categories_sizes":[],"default_left":[true,true,true,true,true,false,true,true,true,true,true,true,true,true,true,true,true,true,true,true,true,true,true,true,true,true,true,true,true,true,false,true,true,true,true,true,true,true,true,true,true,true,true,true,true,true,false,false,false,false,false,false,false,false,false,false,false,false,false,false,false,false,false,false,false,false,false,false,false,false,false,false,false,false,false,false,false,false,false,false,false,false,false,false,false,false,false,false,false],"id":9,"left_children":[1,3,5,7,9,-1,11,13,15,17,19,21,23,25,27,29,31,33,35,37,39,41,43,45,47,49,51,53,55,57,-1,59,61,63,65,67,69,71,73,75,77,79,81,83,85,87,-1,-1,-1,-1,-1,-1,-1,-1,-1,-1,-1,-1,-1,-1,-1,-1,-1,-1,-1,-1,-1,-1,-1,-1,-1,-1,-1,-1,-1,-1,-1,-1,-1,-1,-1,-1,-1,-1,-1,-1,-1,-1,-1],"loss_changes":[3.049292E1,1.5224915E1,9.316284E0,5.1419373E0,1.0730713E1,0E0,7.1900635E0,7.0579634E0,4.7973633E0,5.3294373E0,7.9589386E0,6.2020264E0,4.4295197E0,2.2928526E0,3.659584E0,1.4847429E0,3.7599792E0,3.9081726E0,3.0369444E0,5.3767614E0,5.490341E0,2.7483826E0,8.2196045E0,1.3265076E0,3.485269E-1,1.9717458E0,1.3433537E0,2.0746054E-1,7.9117966E-1,8.86696E-2,0E0,1.3927841E0,2.9273987E0,3.5639648E0,8.2209134E-1,2.3913819E-1,1.4004059E0,1.2315435E0,3.162479E0,6.0974045E0,6.7082214E-1,3.8361511E0,5.8401537E-1,2.875566E0,3.9353027E0,8.4635925E-1,0E0,0E0,0E0,0E0,0E0,0E0,0E0,0E0,0E0,0E0,0E0,0E0,0E0,0E0,0E0,0E0,0E0,0E0,0E0,0E0,0E0,0E0,0E0,0E0,0E0,0E0,0E0,0E0,0E0,0E0,0E0,0E0,0E0,0E0,0E0,0E0,0E0,0E0,0E0,0E0,0E0,0E0,0E0],"parents":[2147483647,0,0,1,1,2,2,3,3,4,4,6,6,7,7,8,8,9,9,10,10,11,11,12,12,13,13,14,14,15,15,16,16,17,17,18,18,19,19,20,20,21,21,22,22,23,23,24,24,25,25,26,26,27,27,28,28,29,29,31,31,32,32,33,33,34,34,35,35,36,36,37,37,38,38,39,39,40,40,41,41,42,42,43,43,44,44,45,45],"right_children":[2,4,6,8,10,-1,12,14,16,18,20,22,24,26,28,30,32,34,36,38,40,42,44,46,48,50,52,54,56,58,-1,60,62,64,66,68,70,72,74,76,78,80,82,84,86,88,-1,-1,-1,-1,-1,-1,-1,-1,-1,-1,-1,-1,-1,-1,-1,-1,-1,-1,-1,-1,-1,-1,-1,-1,-1,-1,-1,-1,-1,-1,-1,-1,-1,-1,-1,-1,-1,-1,-1,-1,-1,-1,-1],"split_conditions":[2.83195E1,2.7601E1,2.32205E1,2.0594E1,2.89225E1,8.6655295E-1,3.0532001E1,2.9638E1,2.680981E1,2.87995E1,2.12145E1,2.8557499E1,2.98825E1,2.19015E1,2.72085E1,2.6857136E1,2.7120636E1,3.04155E1,2.3798E1,2.4082E1,2.96795E1,3.14905E1,2.6947498E1,3.14525E1,2.9922E1,2.0414501E1,2.816E1,2.47705E1,3.0578499E1,2.6975817E1,-1.3563266E-1,2.7117443E1,2.0900002E1,3.07655E1,2.79545E1,2.1356998E1,2.79705E1,2.55635E1,2.5255001E1,2.9254E1,1.9619E1,2.1953999E1,3.1643E1,2.3664E1,3.08445E1,3.057E1,6.319315E-1,-2.675543E-2,1.4897104E-1,1.7576331E-1,-5.851696E-2,-1.4833595E-1,9.765587E-2,1.0001478E-1,-2.7060319E-2,7.587004E-2,4.567951E-1,3.1245805E-2,1.845543E-1,4.7887886E-1,3.066705E-1,1.7816442E-1,2.720636E-1,3.3304805E-1,6.300688E-2,1.7858443E-1,-3.5490992E-4,-6.740608E-2,3.3861842E-2,5.5503845E-3,2.8127873E-1,1.07655145E-1,4.610764E-1,-1.5622982E-1,2.0165907E-1,5.0759035E-1,3.0280203E-1,2.3495273E-1,6.324418E-1,6.808313E-1,4.1445607E-1,7.110658E-2,2.670048E-1,-9.197011E-2,1.8807544E-1,3.3310813E-1,4.0002847E-1,7.3444754E-2,4.433783E-1],"split_indices":[23,13,12,0,17,0,13,6,7,17,23,11,3,11,3,2,6,0,23,12,17,6,12,23,3,0,2,3,5,0,0,1,23,4,11,10,5,9,0,16,11,13,6,15,23,13,0,0,0,0,0,0,0,0,0,0,0,0,0,0,0,0,0,0,0,0,0,0,0,0,0,0,0,0,0,0,0,0,0,0,0,0,0,0,0,0,0,0,0],"split_type":[0,0,0,0,0,0,0,0,0,0,0,0,0,0,0,0,0,0,0,0,0,0,0,0,0,0,0,0,0,0,0,0,0,0,0,0,0,0,0,0,0,0,0,0,0,0,0,0,0,0,0,0,0,0,0,0,0,0,0,0,0,0,0,0,0,0,0,0,0,0,0,0,0,0,0,0,0,0,0,0,0,0,0,0,0,0,0,0,0],"sum_hessian":[1.869E3,1.023E3,8.46E2,6.08E2,4.15E2,3E0,8.43E2,3.3E1,5.75E2,3.14E2,1.01E2,7.38E2,1.05E2,2.2E1,1.1E1,5E0,5.7E2,2.94E2,2E1,1.3E1,8.8E1,1.35E2,6.03E2,1.01E2,4E0,1.4E1,8E0,3E0,8E0,2E0,3E0,3.8E1,5.32E2,2.82E2,1.2E1,8E0,1.2E1,6E0,7E0,6.6E1,2.2E1,1.27E2,8E0,1.4E1,5.89E2,9.2E1,9E0,1E0,3E0,1E1,4E0,6E0,2E0,1E0,2E0,1E0,7E0,1E0,1E0,1.2E1,2.6E1,4E1,4.92E2,2.77E2,5E0,9E0,3E0,2E0,6E0,2E0,1E1,2E0,4E0,4E0,3E0,3.1E1,3.5E1,2E0,2E1,7E0,1.2E2,3E0,5E0,4E0,1E1,4.51E2,1.38E2,1E0,9.1E1],"tree_param":{"num_deleted":"0","num_feature":"24","num_nodes":"89","size_leaf_vector":"0"}},{"base_weights":[7.7727E-1,6.684583E-1,8.5624486E-1,6.3418525E-1,1.1069665E0,8.06119E-1,1.0229065E0,5.367019E-1,7.26093E-1,1.7647096E0,9.0696913E-1,7.80182E-1,1.0548825E0,1.0705094E0,3.978347E-1,-3.5029065E-2,5.7211775E-1,5.779559E-1,8.251379E-1,1.989818E0,4.2611185E-1,3.591835E-1,9.5165104E-1,7.1680444E-1,8.5009146E-1,1.0869892E0,-8.871015E-2,2.4449966E0,1.0287273E0,1.2018086E-1,8.56644E-1,2.77364E-1,-4.3763715E-1,5.578262E-1,1.4180863E0,8.2652617E-1,3.664515E-1,1.5724701E0,7.5977665E-1,5.0785065E-1,1.3131714E-1,9.725293E-1,5.8259964E-2,4.08974E-1,7.484886E-1,1.2756463E0,8.0119544E-1,1.1934067E0,6.266378E-1,1.3956547E-1,-2.726307E-1,9.338638E-1,1.2356651E0,-9.810702E-2,4.8906288E-1,4.0982866E-1,1.0892982E0,4.9378872E-2,5.3511685E-1,2.7262497E-1,-5.468468E-1,-3.5038376E-1,5.670605E-1,3.6908785E-1,1.9943892E0,9.214377E-1,-3.394362E-1,6.851428E-1,2.2983292E-1,1.809536E0,8.3625984E-1,7.7733314E-1,-6.931756E-1,6.445122E-2,9.941608E-1,1.3140136E-1,5.2324075E-1,7.5691855E-1,-1.15386965E-2,1.3481702E0,5.708698E-1,-4.919443E-1,8.0675644E-1,1.3994281E-1,1.2279152E0,8.0016965E-1,8.4833905E-2,8.9173704E-1,1.3319036E0,1.3394371E0,7.471398E-1,-2.6859188E-1,1.8214703E-1,1.0949421E-1,5.565815E-1],"categories":[],"categories_nodes":[],"categories_segments":[],"categories_sizes":[],"default_left":[true,true,true,true,true,true,true,true,true,true,true,true,true,true,true,true,true,true,true,false,true,false,true,true,true,true,true,false,true,true,true,true,true,true,true,true,true,true,true,false,false,true,false,true,true,true,true,true,true,false,false,true,true,true,true,false,false,false,false,false,false,false,false,false,false,false,false,false,false,false,false,false,false,false,false,false,false,false,false,false,false,false,false,false,false,false,false,false,false,false,false,false,false,false,false],"id":10,"left_children":[1,3,5,7,9,11,13,15,17,19,21,23,25,27,29,31,33,35,37,-1,39,-1,41,43,45,47,49,-1,51,53,55,57,59,61,63,65,67,69,71,-1,-1,73,-1,75,77,79,81,83,85,-1,-1,87,89,91,93,-1,-1,-1,-1,-1,-1,-1,-1,-1,-1,-1,-1,-1,-1,-1,-1,-1,-1,-1,-1,-1,-1,-1,-1,-1,-1,-1,-1,-1,-1,-1,-1,-1,-1,-1,-1,-1,-1,-1,-1],"loss_changes":[1.5497192E1,1.1185913E1,8.197815E0,6.2044983E0,5.7660904E0,4.564575E0,6.8938904E0,7.3296814E0,5.039856E0,2.768074E0,7.596092E-1,2.7579956E0,2.886917E0,1.0578613E1,2.3174603E0,2.8883681E0,3.3196182E0,7.7934685E0,9.698074E0,0E0,5.5989623E-3,0E0,7.0809174E-1,3.6439972E0,6.385559E0,2.8773804E0,1.6400355E-1,0E0,3.2237244E0,1.0947726E0,2.8124905E-1,7.3750615E-1,9.247589E-1,3.0166092E0,2.2865992E0,8.0592E0,3.5433607E0,1.4537735E0,5.8191376E0,0E0,0E0,7.2164917E-1,0E0,1.1999388E0,2.3536987E0,1.0193291E0,2.7124481E0,1.9730225E0,1.4364419E0,0E0,0E0,1.4448853E0,2.3958359E0,4.7893485E-1,6.719732E-2,0E0,0E0,0E0,0E0,0E0,0E0,0E0,0E0,0E0,0E0,0E0,0E0,0E0,0E0,0E0,0E0,0E0,0E0,0E0,0E0,0E0,0E0,0E0,0E0,0E0,0E0,0E0,0E0,0E0,0E0,0E0,0E0,0E0,0E0,0E0,0E0,0E0,0E0,0E0,0E0],"parents":[2147483647,0,0,1,1,2,2,3,3,4,4,5,5,6,6,7,7,8,8,9,9,10,10,11,11,12,12,13,13,14,14,15,15,16,16,17,17,18,18,20,20,22,22,23,23,24,24,25,25,26,26,28,28,29,29,30,30,31,31,32,32,33,33,34,34,35,35,36,36,37,37,38,38,41,41,43,43,44,44,45,45,46,46,47,47,48,48,51,51,52,52,53,53,54,54],"right_children":[2,4,6,8,10,12,14,16,18,20,22,24,26,28,30,32,34,36,38,-1,40,-1,42,44,46,48,50,-1,52,54,56,58,60,62,64,66,68,70,72,-1,-1,74,-1,76,78,80,82,84,86,-1,-1,88,90,92,94,-1,-1,-1,-1,-1,-1,-1,-1,-1,-1,-1,-1,-1,-1,-1,-1,-1,-1,-1,-1,-1,-1,-1,-1,-1,-1,-1,-1,-1,-1,-1,-1,-1,-1,-1,-1,-1,-1,-1,-1],"split_conditions":[2.7595001E1,3.1425499E1,2.831324E1,2.7749771E1,2.57085E1,3.13015E1,3.01305E1,2.42855E1,2.25965E1,2.9876E1,3.05615E1,2.9308E1,2.8892E1,2.4683498E1,2.97425E1,2.8359001E1,3.12835E1,2.33755E1,2.2644001E1,5.969454E-1,2.51145E1,1.0775505E-1,2.6138E1,2.3245E1,2.4463501E1,2.9351501E1,2.7775002E1,7.33499E-1,3.0871E1,3.1782501E1,2.4358E1,2.81145E1,2.50905E1,2.6880802E1,2.9354E1,2.24715E1,2.8375E1,2.9388E1,3.19595E1,1.523552E-1,3.9395142E-2,2.195E1,1.747799E-2,2.5767E1,3.2203E1,3.15275E1,2.2552E1,2.6006E1,2.3219E1,4.186964E-2,-8.178921E-2,3.08955E1,2.5293499E1,2.55385E1,2.321E1,1.229486E-1,3.267895E-1,1.48136625E-2,1.6053507E-1,8.17875E-2,-1.6405405E-1,-1.0511513E-1,1.7011815E-1,1.1072636E-1,5.983168E-1,2.7643132E-1,-1.0183086E-1,2.0554285E-1,6.894988E-2,5.428608E-1,2.5087798E-1,2.3319995E-1,-2.079527E-1,1.9335367E-2,2.9824823E-1,3.942041E-2,1.5697223E-1,2.2707558E-1,-3.4616091E-3,4.0445107E-1,1.7126095E-1,-1.475833E-1,2.4202694E-1,4.1982844E-2,3.6837456E-1,2.400509E-1,2.5450172E-2,2.675211E-1,3.995711E-1,4.0183115E-1,2.2414196E-1,-8.057757E-2,5.464411E-2,3.2848265E-2,1.6697446E-1],"split_indices":[23,14,16,14,12,8,17,10,23,5,2,23,5,12,8,8,19,12,0,0,0,0,10,18,3,12,0,0,1,6,3,20,2,7,5,23,17,20,16,0,0,11,0,7,7,6,1,7,4,0,0,10,21,3,0,0,0,0,0,0,0,0,0,0,0,0,0,0,0,0,0,0,0,0,0,0,0,0,0,0,0,0,0,0,0,0,0,0,0,0,0,0,0,0,0],"split_type":[0,0,0,0,0,0,0,0,0,0,0,0,0,0,0,0,0,0,0,0,0,0,0,0,0,0,0,0,0,0,0,0,0,0,0,0,0,0,0,0,0,0,0,0,0,0,0,0,0,0,0,0,0,0,0,0,0,0,0,0,0,0,0,0,0,0,0,0,0,0,0,0,0,0,0,0,0,0,0,0,0,0,0,0,0,0,0,0,0,0,0,0,0,0,0],"sum_hessian":[1.869E3,7.9E2,1.079E3,7.35E2,5.5E1,8.34E2,2.45E2,3.6E2,3.75E2,1.1E1,4.4E1,7.59E2,7.5E1,2.27E2,1.8E1,2.1E1,3.39E2,1.53E2,2.22E2,9E0,2E0,4E0,4E1,4.04E2,3.55E2,7.3E1,2E0,5E0,2.22E2,1.2E1,6E0,1.2E1,9E0,3.35E2,4E0,6.9E1,8.4E1,1.6E1,2.06E2,1E0,1E0,3.9E1,1E0,3.9E1,3.65E2,3.4E1,3.21E2,5.8E1,1.5E1,1E0,1E0,1.56E2,6.6E1,8E0,4E0,3E0,3E0,7E0,5E0,1E0,8E0,3E0,3.32E2,2E0,2E0,6.4E1,5E0,2.4E1,6E1,1.1E1,5E0,2.04E2,2E0,1E0,3.8E1,1.2E1,2.7E1,3.61E2,4E0,3E1,4E0,1E0,3.2E2,2E0,5.6E1,1.1E1,4E0,1.44E2,1.2E1,5.3E1,1.3E1,5E0,3E0,1E0,3E0],"tree_param":{"num_deleted":"0","num_feature":"24","num_nodes":"95","size_leaf_vector":"0"}},{"base_weights":[5.482295E-1,4.4992813E-1,5.9477305E-1,3.6725903E-1,5.8693844E-1,9.6306413E-1,5.8134884E-1,3.0060506E-1,5.6405663E-1,5.3762996E-1,1.019725E0,1.0908647E0,4.322361E-1,3.6109272E-1,6.096914E-1,4.17787E-1,1.5269467E-1,1.1638211E0,4.2785344E-1,6.684773E-1,4.0911707E-1,1.2685769E0,3.0524555E-1,7.717757E-1,1.491579E0,6.4383537E-1,9.1869734E-2,1.09170176E-1,4.694109E-1,9.540856E-1,5.9453464E-1,2.9663366E-1,7.0895416E-1,2.0759204E-1,-5.9623635E-1,1.7811462E0,6.6517586E-1,9.110721E-2,5.64533E-1,3.965912E-1,8.666267E-1,1.0202305E-1,5.0263965E-1,1.4790553E0,5.0971335E-1,7.58152E-2,3.3084807E-1,5.018859E-1,1.3628527E0,1.6276344E0,4.501648E-1,2.905642E-1,-1.37448E-1,4.0002656E-1,-2.598588E-1,6.2489337E-1,1.5378582E-1,8.257168E-1,1.5146465E0,5.6187254E-1,7.137213E-1,2.2075926E-1,7.826875E-1,7.9571766E-1,-4.009924E-1,2.7898508E-1,-2.1246761E-1,-6.339698E-1,-1.4718437E-1,4.2584993E-2,1.0148585E0,3.6292887E-1,-1.6681334E-1,9.188053E-1,3.2571805E-1,7.5129464E-2,7.1463794E-1,1.1510384E0,3.6183357E-1,5.3811806E-1,-2.7433759E-2,2.9018268E-1,6.93012E-1,1.0200329E-1,1.0014488E0,1.7378308E0,2.0773697E-1,1.7386025E-1,9.5675987E-1,-5.063603E-1,1.7318845E-1,2.0623267E-1,7.775946E-1,-1.9667966E-2,8.2563156E-1,1.2760277E-1,9.040949E-1,6.533355E-1,4.5659664E-1,7.9376805E-1,4.8183483E-1],"categories":[],"categories_nodes":[],"categories_segments":[],"categories_sizes":[],"default_left":[true,true,true,true,true,true,true,true,true,true,true,true,true,true,true,true,true,true,true,true,true,true,true,true,true,false,true,true,true,true,true,true,true,true,true,false,true,true,true,true,true,true,true,false,false,false,false,true,false,true,false,false,false,true,true,true,true,true,false,true,true,false,false,false,false,false,false,false,false,false,false,false,false,false,false,false,false,false,false,false,false,false,false,false,false,false,false,false,false,false,false,false,false,false,false,false,false,false,false,false,false],"id":11,"left_children":[1,3,5,7,9,11,13,15,17,19,21,23,25,27,29,31,33,35,37,39,41,43,45,47,49,-1,51,53,55,57,59,61,63,65,67,-1,69,71,73,75,77,79,81,-1,-1,-1,-1,83,-1,85,-1,-1,-1,87,89,91,93,95,-1,97,99,-1,-1,-1,-1,-1,-1,-1,-1,-1,-1,-1,-1,-1,-1,-1,-1,-1,-1,-1,-1,-1,-1,-1,-1,-1,-1,-1,-1,-1,-1,-1,-1,-1,-1,-1,-1,-1,-1,-1,-1],"loss_changes":[8.288208E0,6.636986E0,5.69928E0,4.815033E0,4.2746124E0,2.44561E0,7.420807E0,4.89328E0,7.2625904E0,3.173706E0,3.5243626E0,3.1961975E0,6.610639E-1,3.8236198E0,5.0858765E0,5.3985596E0,5.3864098E0,4.048271E0,3.5846462E0,5.0437126E0,2.993063E0,1.8016949E0,1.6034603E-2,2.6660423E0,1.2509575E0,0E0,2.677583E-1,4.826666E0,4.7622414E0,1.9155045E0,3.647583E0,4.0314274E0,4.74901E0,3.6579947E0,5.9188128E-2,0E0,2.351584E0,1.7431428E0,4.4386387E0,4.444863E0,7.7669525E0,1.4826047E0,3.0750217E0,0E0,0E0,0E0,0E0,3.0941133E0,0E0,1.5165997E0,0E0,0E0,0E0,2.981515E0,2.2226315E0,4.0590134E0,3.978401E0,1.9638748E0,0E0,7.6069946E0,3.7011185E0,0E0,0E0,0E0,0E0,0E0,0E0,0E0,0E0,0E0,0E0,0E0,0E0,0E0,0E0,0E0,0E0,0E0,0E0,0E0,0E0,0E0,0E0,0E0,0E0,0E0,0E0,0E0,0E0,0E0,0E0,0E0,0E0,0E0,0E0,0E0,0E0,0E0,0E0,0E0,0E0],"parents":[2147483647,0,0,1,1,2,2,3,3,4,4,5,5,6,6,7,7,8,8,9,9,10,10,11,11,12,12,13,13,14,14,15,15,16,16,17,17,18,18,19,19,20,20,21,21,22,22,23,23,24,24,26,26,27,27,28,28,29,29,30,30,31,31,32,32,33,33,34,34,36,36,37,37,38,38,39,39,40,40,41,41,42,42,47,47,49,49,53,53,54,54,55,55,56,56,57,57,59,59,60,60],"right_children":[2,4,6,8,10,12,14,16,18,20,22,24,26,28,30,32,34,36,38,40,42,44,46,48,50,-1,52,54,56,58,60,62,64,66,68,-1,70,72,74,76,78,80,82,-1,-1,-1,-1,84,-1,86,-1,-1,-1,88,90,92,94,96,-1,98,100,-1,-1,-1,-1,-1,-1,-1,-1,-1,-1,-1,-1,-1,-1,-1,-1,-1,-1,-1,-1,-1,-1,-1,-1,-1,-1,-1,-1,-1,-1,-1,-1,-1,-1,-1,-1,-1,-1,-1,-1],"split_conditions":[2.6526001E1,2.87435E1,2.3604E1,3.03155E1,2.9407501E1,3.0199501E1,2.3699E1,2.968E1,2.14235E1,2.54775E1,2.99655E1,2.9617E1,2.8562E1,3.0036499E1,2.6870651E1,2.9171501E1,2.57825E1,3.0436E1,2.9213001E1,2.92655E1,2.4027E1,3.13415E1,2.41905E1,2.87565E1,2.52415E1,1.9315062E-1,3.0869E1,2.9549E1,2.3657501E1,2.9845001E1,2.855756E1,2.3435501E1,3.20425E1,2.38125E1,2.47255E1,5.343439E-1,3.1515999E1,2.6439E1,2.5674E1,2.8849998E1,2.9351501E1,2.8167E1,2.82465E1,4.4371662E-1,1.5291402E-1,2.274456E-2,9.925442E-2,2.31025E1,4.0885583E-1,2.86915E1,1.3504945E-1,8.716927E-2,-4.12344E-2,3.1435001E1,2.19625E1,2.4884499E1,2.90315E1,2.2810501E1,4.5439398E-1,2.52995E1,2.90579E1,6.622778E-2,2.3480625E-1,2.387153E-1,-1.2029772E-1,8.369553E-2,-6.374028E-2,-1.9019094E-1,-4.4155315E-2,1.2775498E-2,3.0445755E-1,1.08878665E-1,-5.0044004E-2,2.756416E-1,9.7715415E-2,2.253884E-2,2.143914E-1,3.4531152E-1,1.0855008E-1,1.6143543E-1,-8.230128E-3,8.7054804E-2,2.0790361E-1,3.060099E-2,3.0043465E-1,5.2134925E-1,6.2321093E-2,5.2158076E-2,2.8702798E-1,-1.519081E-1,5.1956538E-2,6.1869804E-2,2.332784E-1,-5.90039E-3,2.4768947E-1,3.8280834E-2,2.7122846E-1,1.9600067E-1,1.36979E-1,2.3813042E-1,1.4455046E-1],"split_indices":[13,21,12,7,23,14,23,6,13,12,21,14,8,2,0,6,12,19,8,7,1,8,1,7,0,0,3,2,11,1,7,23,16,1,1,0,18,16,12,20,21,23,22,0,0,0,0,12,0,6,0,0,0,3,10,0,18,11,0,8,12,0,0,0,0,0,0,0,0,0,0,0,0,0,0,0,0,0,0,0,0,0,0,0,0,0,0,0,0,0,0,0,0,0,0,0,0,0,0,0,0],"split_type":[0,0,0,0,0,0,0,0,0,0,0,0,0,0,0,0,0,0,0,0,0,0,0,0,0,0,0,0,0,0,0,0,0,0,0,0,0,0,0,0,0,0,0,0,0,0,0,0,0,0,0,0,0,0,0,0,0,0,0,0,0,0,0,0,0,0,0,0,0,0,0,0,0,0,0,0,0,0,0,0,0,0,0,0,0,0,0,0,0,0,0,0,0,0,0,0,0,0,0,0,0],"sum_hessian":[1.869E3,6.04E2,1.265E3,3.79E2,2.25E2,4.2E1,1.223E3,2.85E2,9.4E1,2.04E2,2.1E1,3.3E1,9E0,1.41E2,1.082E3,1.58E2,1.27E2,1.6E1,7.8E1,9.9E1,1.05E2,1.5E1,6E0,2E1,1.3E1,5E0,4E0,4.3E1,9.8E1,4.3E1,1.039E3,1.13E2,4.5E1,1.19E2,8E0,6E0,1E1,2.3E1,5.5E1,4.3E1,5.6E1,2.5E1,8E1,1.1E1,4E0,1E0,5E0,1.5E1,5E0,1.1E1,2E0,2E0,2E0,2.4E1,1.9E1,6.5E1,3.3E1,3.7E1,6E0,8.2E2,2.19E2,9.9E1,1.4E1,4.2E1,3E0,1.02E2,1.7E1,7E0,1E0,4E0,6E0,1.1E1,1.2E1,2.1E1,3.4E1,2.2E1,2.1E1,3.5E1,2.1E1,5E0,2E1,3.9E1,4.1E1,9E0,6E0,1E1,1E0,1.8E1,6E0,1.2E1,7E0,1.8E1,4.7E1,2.7E1,6E0,4E0,3.3E1,4.36E2,3.84E2,1.61E2,5.8E1],"tree_param":{"num_deleted":"0","num_feature":"24","num_nodes":"101","size_leaf_vector":"0"}},{"base_weights":[3.8766435E-1,3.536442E-1,4.8544434E-1,3.4927318E-1,1.1679617E0,4.0315598E-1,6.1915183E-1,2.4224919E-1,3.6598328E-1,1.321523E0,5.2270573E-1,3.1587783E-1,5.1334023E-1,1.4423249E0,5.924003E-1,1.4425837E0,2.2180636E-1,3.558613E-1,8.0778384E-1,5.458162E-1,2.182514E-1,9.574215E-1,4.6465427E-1,8.453015E-2,6.09726E-1,7.341331E-1,1.9194561E-1,1.1527774E0,3.52142E-1,1.1487101E0,3.143107E-1,6.2280554E-1,6.377149E-2,3.1378186E-1,-1.8092506E-1,2.268629E-1,1.003212E0,5.75952E-1,2.187294E-1,3.8338566E-1,-2.354579E-1,6.3149774E-1,2.356368E-1,1.0235348E0,2.4002457E-1,1.2556084E-1,4.1232464E-1,9.34676E-2,3.5958713E-1,1.2468853E0,3.40381E-1,4.335968E-1,-1.8807983E-1,4.438701E-1,8.2546765E-1,2.6175117E-1,-1.0736656E-1,1.970311E-1,4.414777E-1,5.535916E-2,-4.652027E-1,9.0653634E-1,4.8841017E-1,7.856535E-3,4.9116158E-1,-3.8306713E-1,-5.8565777E-2,8.899451E-1,5.819743E-1,-1.3320465E-1,4.6543258E-1],"categories":[],"categories_nodes":[],"categories_segments":[],"categories_sizes":[],"default_left":[true,true,true,true,true,true,true,true,true,false,false,true,true,false,true,false,true,true,true,true,true,true,true,true,true,true,true,false,true,true,true,true,true,true,true,false,false,true,true,false,true,true,true,false,false,false,false,false,false,false,false,false,false,false,false,false,false,false,false,false,false,false,false,false,false,false,false,false,false,false,false],"id":12,"left_children":[1,3,5,7,9,11,13,15,17,-1,-1,19,21,-1,23,-1,25,27,29,31,33,35,37,39,41,43,45,-1,47,49,51,53,55,57,59,-1,-1,61,63,-1,65,67,69,-1,-1,-1,-1,-1,-1,-1,-1,-1,-1,-1,-1,-1,-1,-1,-1,-1,-1,-1,-1,-1,-1,-1,-1,-1,-1,-1,-1],"loss_changes":[6.0488586E0,4.5431824E0,5.031616E0,2.38826E0,2.8362274E-3,2.7228508E0,3.1313858E0,4.342292E0,5.060898E0,0E0,0E0,3.6970444E0,2.3874207E0,0E0,1.5059204E0,0E0,2.735197E0,3.0648956E0,4.013136E0,1.815896E0,4.6709247E0,1.7384052E-1,3.1585274E0,7.5968254E-1,1.2439156E0,1.1842842E0,2.566965E0,0E0,2.2138672E0,7.6595306E-1,8.006892E-1,1.1929264E0,2.991582E-1,1.3740568E0,1.6378407E0,0E0,0E0,1.930315E0,2.2366347E0,0E0,8.2009E-2,1.5427475E0,9.94338E-1,0E0,0E0,0E0,0E0,0E0,0E0,0E0,0E0,0E0,0E0,0E0,0E0,0E0,0E0,0E0,0E0,0E0,0E0,0E0,0E0,0E0,0E0,0E0,0E0,0E0,0E0,0E0,0E0],"parents":[2147483647,0,0,1,1,2,2,3,3,4,4,5,5,6,6,7,7,8,8,11,11,12,12,14,14,16,16,17,17,18,18,19,19,20,20,21,21,22,22,23,23,24,24,25,25,26,26,28,28,29,29,30,30,31,31,32,32,33,33,34,34,37,37,38,38,40,40,41,41,42,42],"right_children":[2,4,6,8,10,12,14,16,18,-1,-1,20,22,-1,24,-1,26,28,30,32,34,36,38,40,42,44,46,-1,48,50,52,54,56,58,60,-1,-1,62,64,-1,66,68,70,-1,-1,-1,-1,-1,-1,-1,-1,-1,-1,-1,-1,-1,-1,-1,-1,-1,-1,-1,-1,-1,-1,-1,-1,-1,-1,-1,-1],"split_conditions":[2.9397999E1,3.2356E1,2.37815E1,2.21885E1,2.94445E1,3.08445E1,2.4772999E1,2.4324E1,3.1554E1,3.964569E-1,1.5681173E-1,2.8803501E1,2.45375E1,4.3269747E-1,2.2005001E1,4.327751E-1,2.7581E1,2.03255E1,3.0929E1,2.30655E1,3.10835E1,2.0713501E1,2.9414501E1,2.55065E1,3.14265E1,3.0306E1,3.1163E1,3.4583324E-1,2.3052E1,2.98025E1,3.1088001E1,2.7376999E1,2.1743E1,3.0463001E1,2.8335499E1,6.805888E-2,3.009636E-1,3.0102001E1,2.42215E1,1.150157E-1,3.1344501E1,2.24265E1,2.4193E1,3.0706045E-1,7.200737E-2,3.766825E-2,1.2369739E-1,2.804028E-2,1.07876144E-1,3.740656E-1,1.02114305E-1,1.3007905E-1,-5.642395E-2,1.3316104E-1,2.476403E-1,7.852536E-2,-3.220997E-2,5.910933E-2,1.3244331E-1,1.6607748E-2,-1.3956082E-1,2.719609E-1,1.4652306E-1,2.3569604E-3,1.4734848E-1,-1.1492015E-1,-1.7569734E-2,2.6698354E-1,1.745923E-1,-3.9961398E-2,1.3962978E-1],"split_indices":[23,14,18,11,6,23,12,14,3,0,0,12,16,0,21,0,6,12,2,18,10,5,21,6,22,16,4,0,6,18,1,3,17,23,3,0,0,12,19,0,0,4,18,0,0,0,0,0,0,0,0,0,0,0,0,0,0,0,0,0,0,0,0,0,0,0,0,0,0,0,0],"split_type":[0,0,0,0,0,0,0,0,0,0,0,0,0,0,0,0,0,0,0,0,0,0,0,0,0,0,0,0,0,0,0,0,0,0,0,0,0,0,0,0,0,0,0,0,0,0,0,0,0,0,0,0,0,0,0,0,0,0,0,0,0,0,0,0,0,0,0,0,0,0,0],"sum_hessian":[1.869E3,1.39E3,4.79E2,1.384E3,6E0,2.99E2,1.8E2,1.89E2,1.195E3,4E0,2E0,1.69E2,1.3E2,4E0,1.76E2,2E0,1.87E2,1.17E3,2.5E1,4.9E1,1.2E2,1.1E1,1.19E2,6E0,1.7E2,9E0,1.78E2,4E0,1.166E3,1.4E1,1.1E1,4.2E1,7E0,9.7E1,2.3E1,1E0,1E1,8.1E1,3.8E1,3E0,3E0,1.6E2,1E1,5E0,4E0,1.38E2,4E1,3.3E1,1.133E3,1.2E1,2E0,9E0,2E0,2.4E1,1.8E1,3E0,4E0,5.2E1,4.5E1,1.3E1,1E1,1.5E1,6.6E1,2.2E1,1.6E1,1E0,2E0,2.3E1,1.37E2,4E0,6E0],"tree_param":{"num_deleted":"0","num_feature":"24","num_nodes":"71","size_leaf_vector":"0"}},{"base_weights":[2.7401093E-1,2.328152E-1,3.2798648E-1,2.2034962E-1,5.308976E-1,3.1638202E-1,7.276733E-1,8.151462E-1,2.1544932E-1,9.967578E-1,4.2556655E-1,2.7729553E-1,4.188988E-1,-1.6140938E-1,7.776967E-1,-3.1344095E-4,1.0870184E0,4.140441E-1,2.032137E-1,-6.686783E-2,1.1851734E0,3.6379552E-1,9.8378307E-1,1.0770593E-1,3.1042045E-1,5.2123857E-1,2.9139882E-1,4.2142868E-2,8.529054E-1,-1.3734531E-1,1.3687515E-1,1.2024555E0,2.549162E-1,7.582856E-1,1.6616298E-1,2.1587813E-1,2.2736639E-2,4.220028E-1,-5.8207322E-2,6.2146705E-1,6.6087574E-2,6.3660693E-1,2.9403856E-1,5.9635454E-1,2.4598277E-1,1.376566E-1,4.0909445E-1,5.8945656E-2,4.2686462E-3,9.209211E-1,1.8318112E-1,1.9094372E-1,8.9753646E-1,-2.9477406E-2,4.0032828E-1,-2.4156609E-1,2.2079195E-1,-4.5443612E-1,1.09081924E-1,2.759552E-2,4.6480376E-1,5.41331E-2,-1.511453E-1,-2.128315E-1,7.9598874E-1,1.3817744E-1,-1.8953133E-1,4.5100632E-1,1.3590579E0,3.705693E-1,2.3250243E-1,4.1350615E-1,7.290551E-1,3.1803688E-1,-2.4783754E-1,-1.11624785E-1,2.5770873E-1,4.9654183E-1,1.1753123E-1,9.856876E-1,2.9011473E-1,-3.946781E-2,3.142395E-1],"categories":[],"categories_nodes":[],"categories_segments":[],"categories_sizes":[],"default_left":[true,true,true,true,true,true,true,true,true,true,true,true,true,false,true,true,true,true,true,false,false,true,false,true,true,true,true,true,true,false,false,false,false,true,true,true,true,true,true,true,true,true,true,true,true,true,true,false,false,true,true,false,false,false,false,false,false,false,false,false,false,false,false,false,false,false,false,false,false,false,false,false,false,false,false,false,false,false,false,false,false,false,false],"id":13,"left_children":[1,3,5,7,9,11,13,15,17,19,21,23,25,-1,27,29,31,33,35,-1,-1,37,-1,39,41,43,45,47,49,-1,-1,-1,-1,51,53,55,57,59,61,63,65,67,69,71,73,75,77,-1,-1,79,81,-1,-1,-1,-1,-1,-1,-1,-1,-1,-1,-1,-1,-1,-1,-1,-1,-1,-1,-1,-1,-1,-1,-1,-1,-1,-1,-1,-1,-1,-1,-1,-1],"loss_changes":[4.0816956E0,3.8365936E0,3.512764E0,2.8061104E0,1.636734E0,3.0333633E0,1.1039772E0,1.7739468E0,2.3846664E0,1.4820757E0,8.834424E-1,3.1798553E0,2.6534996E0,0E0,1.1257763E0,7.519679E-2,2.6980782E-1,4.8231974E0,2.1870193E0,0E0,0E0,8.5972786E-1,0E0,1.9902084E0,2.367031E0,2.293087E0,1.7169743E0,1.6575595E-3,6.967888E-1,0E0,0E0,0E0,0E0,1.7246885E0,1.6152272E0,2.0673637E0,2.6864746E0,4.936037E-1,6.038542E-2,1.1886339E0,1.6662394E0,2.336977E0,2.06604E0,1.9308243E0,1.0395294E0,1.3455443E0,1.3439455E0,0E0,0E0,4.0857506E-1,9.9942364E-2,0E0,0E0,0E0,0E0,0E0,0E0,0E0,0E0,0E0,0E0,0E0,0E0,0E0,0E0,0E0,0E0,0E0,0E0,0E0,0E0,0E0,0E0,0E0,0E0,0E0,0E0,0E0,0E0,0E0,0E0,0E0,0E0],"parents":[2147483647,0,0,1,1,2,2,3,3,4,4,5,5,6,6,7,7,8,8,9,9,10,10,11,11,12,12,14,14,15,15,16,16,17,17,18,18,21,21,23,23,24,24,25,25,26,26,27,27,28,28,33,33,34,34,35,35,36,36,37,37,38,38,39,39,40,40,41,41,42,42,43,43,44,44,45,45,46,46,49,49,50,50],"right_children":[2,4,6,8,10,12,14,16,18,20,22,24,26,-1,28,30,32,34,36,-1,-1,38,-1,40,42,44,46,48,50,-1,-1,-1,-1,52,54,56,58,60,62,64,66,68,70,72,74,76,78,-1,-1,80,82,-1,-1,-1,-1,-1,-1,-1,-1,-1,-1,-1,-1,-1,-1,-1,-1,-1,-1,-1,-1,-1,-1,-1,-1,-1,-1,-1,-1,-1,-1,-1,-1],"split_conditions":[2.84324E1,3.1584E1,2.9649504E1,1.998E1,2.5465E1,2.97705E1,2.0569E1,3.06485E1,2.1081001E1,3.0482E1,2.98825E1,2.6642E1,2.30015E1,-4.8422817E-2,2.032E1,2.5164001E1,2.5176498E1,2.90595E1,2.8737999E1,-2.006035E-2,3.5555202E-1,2.96215E1,2.9513493E-1,2.11195E1,2.7085499E1,2.8980999E1,2.69245E1,3.07255E1,2.8842E1,-4.1203596E-2,4.106255E-2,3.6073667E-1,7.647486E-2,2.27075E1,2.7071E1,2.1185501E1,2.7575E1,3.05615E1,3.1157E1,2.3918499E1,2.89895E1,2.7022785E1,2.34595E1,3.0651001E1,2.30155E1,2.26515E1,3.1769001E1,1.7683698E-2,1.2805939E-3,2.9729168E1,3.0872E1,5.728312E-2,2.6926094E-1,-8.843223E-3,1.2009849E-1,-7.246983E-2,6.623759E-2,-1.3633084E-1,3.2724578E-2,8.278657E-3,1.3944113E-1,1.623993E-2,-4.534359E-2,-6.384945E-2,2.3879664E-1,4.1453235E-2,-5.68594E-2,1.353019E-1,4.0771738E-1,1.1117079E-1,6.975073E-2,1.2405185E-1,2.1871655E-1,9.541107E-2,-7.4351266E-2,-3.3487435E-2,7.731262E-2,1.4896256E-1,3.525937E-2,2.957063E-1,8.703442E-2,-1.1840344E-2,9.427185E-2],"split_indices":[23,14,15,14,12,8,9,7,9,2,17,15,16,0,7,0,0,12,11,0,0,18,0,1,2,12,17,0,6,0,0,0,0,11,23,9,22,2,2,0,5,2,8,21,4,15,7,0,0,16,0,0,0,0,0,0,0,0,0,0,0,0,0,0,0,0,0,0,0,0,0,0,0,0,0,0,0,0,0,0,0,0,0],"split_type":[0,0,0,0,0,0,0,0,0,0,0,0,0,0,0,0,0,0,0,0,0,0,0,0,0,0,0,0,0,0,0,0,0,0,0,0,0,0,0,0,0,0,0,0,0,0,0,0,0,0,0,0,0,0,0,0,0,0,0,0,0,0,0,0,0,0,0,0,0,0,0,0,0,0,0,0,0,0,0,0,0,0,0],"sum_hessian":[1.869E3,1.063E3,8.06E2,1.022E3,4.1E1,7.85E2,2.1E1,7E0,1.015E3,6E0,3.5E1,5.71E2,2.14E2,1E0,2E1,2E0,5E0,5.7E1,9.58E2,1E0,5E0,3.3E1,2E0,9.4E1,4.77E2,1.17E2,9.7E1,2E0,1.8E1,1E0,1E0,4E0,1E0,2.3E1,3.4E1,8.95E2,6.3E1,2.9E1,4E0,6E0,8.8E1,2.1E1,4.56E2,9.1E1,2.6E1,4.3E1,5.4E1,1E0,1E0,1.6E1,2E0,5E0,1.8E1,1.9E1,1.5E1,9E0,8.86E2,9E0,5.4E1,3E0,2.6E1,2E0,2E0,1E0,5E0,6.9E1,1.9E1,1.8E1,3E0,2.01E2,2.55E2,4E1,5.1E1,2.3E1,3E0,1.4E1,2.9E1,4.1E1,1.3E1,1.4E1,2E0,1E0,1E0],"tree_param":{"num_deleted":"0","num_feature":"24","num_nodes":"83","size_leaf_vector":"0"}},{"base_weights":[1.9363911E-1,1.2881061E-1,2.1593326E-1,-2.142379E-1,1.5621181E-1,1.9317563E-1,3.649786E-1,1.725642E-1,-4.6822852E-1,2.06736E-1,-1.4045771E-2,2.2924785E-1,1.2969218E-1,5.912824E-1,2.9754204E-1,-1.6427326E-1,3.5741025E-1,3.1927362E-1,-5.629424E-1,1.7081882E-1,6.2210375E-1,-2.757599E-1,7.337235E-2,8.854201E-1,2.1323675E-1,5.8852704E-3,1.8506013E-1,7.5710636E-1,2.8486335E-1,3.967703E-1,1.6150558E-1,9.2344284E-2,-2.3406562E-1,1.1834192E-1,4.429621E-1,-6.502122E-1,-5.1310062E-2,1.072082E0,1.5883192E-1,7.236746E-1,-1.4284754E-1,3.274029E-1,-4.0030783E-1,2.646335E-1,-7.276658E-2,1.399577E0,3.3413678E-1,1.66838E-1,3.1274143E-1,8.067703E-1,-2.426744E-2,-1.6368629E-1,2.2103326E-1,-4.3354034E-3,8.2074046E-1,-2.4501164E-1,3.780606E-1,2.8110388E-1,5.878886E-1,1.2909865E-2,3.962442E-1,-2.9738808E-1,-9.2721306E-2,3.0208588E-2,1.3765018E-1,-7.378055E-1,-1.8108273E-1,9.656429E-2,-1.3278961E-1,1.8878646E-1,-2.6952153E-1,2.2298431E-1,7.845835E-1,-2.4154377E-1,-2.9434204E-2,4.178047E-3,4.0716457E-1,1.47216795E-2,-4.9335447E-1,3.934267E-1,-2.0312262E-1,-3.0039707E-1,9.0112895E-2,-1.62117E-1,4.072891E-1,2.6277253E-1,1.1880425E-1,2.4700989E-1,4.4960332E-1,1.7418861E-2,9.997535E-1,4.9204803E-1,-5.6856778E-2,-2.5639293E-1,4.7982836E-1,1.6246572E-1,3.1486738E-1,5.7608604E-2,-6.411171E-2,8.635481E-1,-8.191776E-2,-4.785633E-2,-3.1966114E-1,1.9485398E-1,6.6886175E-1,3.4165922E-1,-1.6563961E-1,2.1760395E-2,7.2851396E-1,6.4372253E-1,-7.757509E-2,1.6329522E-1,5.509724E-1],"categories":[],"categories_nodes":[],"categories_segments":[],"categories_sizes":[],"default_left":[true,true,true,true,true,true,true,true,true,true,true,true,true,true,true,true,true,false,true,true,true,true,true,true,true,true,true,true,true,true,true,false,true,true,false,true,true,false,true,true,true,true,true,true,true,false,true,true,true,true,true,true,true,true,true,true,true,true,true,true,true,false,false,false,false,false,false,false,false,false,false,false,false,false,false,false,false,false,false,false,false,false,false,false,false,false,false,false,false,false,false,false,false,false,false,false,false,false,false,false,false,false,false,false,false,false,false,false,false,false,false,false,false],"id":14,"left_children":[1,3,5,7,9,11,13,15,17,19,21,23,25,27,29,31,33,-1,35,37,39,41,43,45,47,49,51,53,55,57,59,-1,61,63,-1,65,67,-1,69,71,73,75,77,79,81,-1,83,85,87,89,91,93,95,97,99,101,103,105,107,109,111,-1,-1,-1,-1,-1,-1,-1,-1,-1,-1,-1,-1,-1,-1,-1,-1,-1,-1,-1,-1,-1,-1,-1,-1,-1,-1,-1,-1,-1,-1,-1,-1,-1,-1,-1,-1,-1,-1,-1,-1,-1,-1,-1,-1,-1,-1,-1,-1,-1,-1,-1,-1],"loss_changes":[2.6748886E0,4.554838E0,4.644264E0,3.6175866E0,3.8394518E0,2.73658E0,2.6168594E0,9.92659E-1,1.8206558E0,5.025812E0,2.3767247E0,7.890339E0,3.0150824E0,1.8676043E0,1.8662281E0,1.290743E-1,1.521064E-1,0E0,8.596387E-1,3.2651834E0,2.201189E0,2.0842514E0,2.1994114E0,4.6343813E0,3.4197235E0,3.3279712E0,3.8500128E0,1.2633543E0,8.8275564E-1,1.6474314E0,2.157516E0,0E0,1.7177105E-2,2.6485845E-3,0E0,5.6497E-1,6.1017677E-2,0E0,4.092689E0,5.569649E-1,3.7664227E-2,1.2720364E-1,8.568394E-1,2.128203E0,1.6955048E0,0E0,4.290496E-1,2.3419514E0,2.0300236E0,7.4424314E-1,2.2658846E0,1.8531089E0,1.4656401E0,1.4801738E-2,9.9811554E-1,2.8854817E-2,6.1554337E-1,1.4903855E0,2.372507E0,2.2760198E0,7.750795E-1,0E0,0E0,0E0,0E0,0E0,0E0,0E0,0E0,0E0,0E0,0E0,0E0,0E0,0E0,0E0,0E0,0E0,0E0,0E0,0E0,0E0,0E0,0E0,0E0,0E0,0E0,0E0,0E0,0E0,0E0,0E0,0E0,0E0,0E0,0E0,0E0,0E0,0E0,0E0,0E0,0E0,0E0,0E0,0E0,0E0,0E0,0E0,0E0,0E0,0E0,0E0,0E0],"parents":[2147483647,0,0,1,1,2,2,3,3,4,4,5,5,6,6,7,7,8,8,9,9,10,10,11,11,12,12,13,13,14,14,15,15,16,16,18,18,19,19,20,20,21,21,22,22,23,23,24,24,25,25,26,26,27,27,28,28,29,29,30,30,32,32,33,33,35,35,36,36,38,38,39,39,40,40,41,41,42,42,43,43,44,44,46,46,47,47,48,48,49,49,50,50,51,51,52,52,53,53,54,54,55,55,56,56,57,57,58,58,59,59,60,60],"right_children":[2,4,6,8,10,12,14,16,18,20,22,24,26,28,30,32,34,-1,36,38,40,42,44,46,48,50,52,54,56,58,60,-1,62,64,-1,66,68,-1,70,72,74,76,78,80,82,-1,84,86,88,90,92,94,96,98,100,102,104,106,108,110,112,-1,-1,-1,-1,-1,-1,-1,-1,-1,-1,-1,-1,-1,-1,-1,-1,-1,-1,-1,-1,-1,-1,-1,-1,-1,-1,-1,-1,-1,-1,-1,-1,-1,-1,-1,-1,-1,-1,-1,-1,-1,-1,-1,-1,-1,-1,-1,-1,-1,-1,-1,-1],"split_conditions":[2.4984001E1,2.3568E1,2.9132E1,2.0911499E1,2.6338E1,2.904E1,2.9198E1,3.04455E1,2.1933E1,3.0914001E1,2.8857E1,2.6632664E1,2.43255E1,3.1189E1,2.8663E1,2.0859E1,3.06165E1,9.578209E-2,2.4833E1,2.64315E1,3.00755E1,2.4189E1,2.8446E1,2.9081501E1,2.88505E1,2.05895E1,2.7067001E1,2.0831501E1,3.0672E1,3.07855E1,2.9239191E1,2.7703287E-2,2.17215E1,2.1591E1,1.3288864E-1,2.27235E1,2.60945E1,3.2162464E-1,2.73535E1,2.1062E1,2.79065E1,2.5622501E1,2.8869E1,2.1854E1,3.0734001E1,4.1987312E-1,2.75015E1,2.5674E1,3.0437E1,2.75975E1,2.0265999E1,2.9835499E1,3.04155E1,2.5925E1,3.1138E1,2.7962502E1,2.8972E1,2.9534008E1,2.70005E1,2.35525E1,3.0725E1,-8.9216426E-2,-2.7816392E-2,9.062577E-3,4.1295055E-2,-2.2134165E-1,-5.432482E-2,2.896929E-2,-3.9836884E-2,5.6635942E-2,-8.0856465E-2,6.68953E-2,2.3537506E-1,-7.246313E-2,-8.830261E-3,1.2534142E-3,1.2214938E-1,4.416504E-3,-1.4800635E-1,1.1802801E-1,-6.0936786E-2,-9.011912E-2,2.703387E-2,-4.8635103E-2,1.2218673E-1,7.883176E-2,3.564128E-2,7.410297E-2,1.34881E-1,5.2256584E-3,2.9992604E-1,1.4761442E-1,-1.7057033E-2,-7.691788E-2,1.4394851E-1,4.873972E-2,9.446022E-2,1.7282583E-2,-1.9233514E-2,2.5906444E-1,-2.457533E-2,-1.43569E-2,-9.5898345E-2,5.8456194E-2,2.0065853E-1,1.0249777E-1,-4.9691886E-2,6.5281186E-3,2.185542E-1,1.9311677E-1,-2.3272527E-2,4.898857E-2,1.6529173E-1],"split_indices":[23,14,15,13,12,12,12,17,2,14,16,21,17,14,4,0,17,0,23,15,5,20,17,0,23,17,23,10,3,13,16,0,0,0,0,13,3,0,10,23,1,0,1,22,3,0,5,12,20,2,18,3,23,0,1,0,5,16,23,6,1,0,0,0,0,0,0,0,0,0,0,0,0,0,0,0,0,0,0,0,0,0,0,0,0,0,0,0,0,0,0,0,0,0,0,0,0,0,0,0,0,0,0,0,0,0,0,0,0,0,0,0,0],"split_type":[0,0,0,0,0,0,0,0,0,0,0,0,0,0,0,0,0,0,0,0,0,0,0,0,0,0,0,0,0,0,0,0,0,0,0,0,0,0,0,0,0,0,0,0,0,0,0,0,0,0,0,0,0,0,0,0,0,0,0,0,0,0,0,0,0,0,0,0,0,0,0,0,0,0,0,0,0,0,0,0,0,0,0,0,0,0,0,0,0,0,0,0,0,0,0,0,0,0,0,0,0,0,0,0,0,0,0,0,0,0,0,0,0],"sum_hessian":[1.869E3,4.8E2,1.389E3,3.5E1,4.45E2,1.207E3,1.82E2,1.4E1,2.1E1,3.43E2,1.02E2,7.68E2,4.39E2,4E1,1.42E2,5E0,9E0,2E0,1.9E1,3.17E2,2.6E1,2.5E1,7.7E1,1.7E1,7.51E2,1.36E2,3.03E2,2.5E1,1.5E1,8.1E1,6.1E1,1E0,4E0,3E0,6E0,1.6E1,3E0,3E0,3.14E2,2.3E1,3E0,4E0,2.1E1,3.3E1,4.4E1,8E0,9E0,5.14E2,2.37E2,4E0,1.32E2,2.8E1,2.75E2,2E0,2.3E1,2E0,1.3E1,5.2E1,2.9E1,3.8E1,2.3E1,2E0,2E0,1E0,2E0,1.3E1,3E0,1E0,2E0,2.94E2,2E1,3E0,2E1,1E0,2E0,1E0,3E0,4E0,1.7E1,2.6E1,7E0,1.8E1,2.6E1,1E0,8E0,1.7E2,3.44E2,1.62E2,7.5E1,1E0,3E0,7E0,1.25E2,2.5E1,3E0,1.71E2,1.04E2,1E0,1E0,2.2E1,1E0,1E0,1E0,9E0,4E0,4.6E1,6E0,6E0,2.3E1,4E0,3.4E1,1E1,1.3E1],"tree_param":{"num_deleted":"0","num_feature":"24","num_nodes":"113","size_leaf_vector":"0"}},{"base_weights":[1.3709906E-1,8.896496E-2,1.613075E-1,-2.0739044E-1,1.0262384E-1,4.9039644E-1,1.5052263E-1,2.0729598E-1,-2.8514218E-1,1.4249632E-1,1.6287658E-2,6.0150707E-1,1.0802498E-1,2.6967698E-1,1.2836984E-1,-6.4567566E-2,4.1006088E-1,-4.5588976E-1,-5.065918E-4,9.316062E-2,3.9897588E-1,-3.5540906E-1,7.701205E-2,6.3672386E-2,7.065271E-1,-4.230363E-2,3.440938E-1,7.829817E-1,2.3949416E-1,-3.447703E-1,1.3531081E-1,-7.642174E-2,-2.0429611E-2,-1.0915184E-1,-5.0083774E-1,-1.0630335E-1,1.8476439E-1,1.5283443E-1,-4.526053E-2,7.6388E-1,2.5678712E-1,-5.4449147E-1,-1.4094026E-1,-5.2285033E-1,1.0293673E-1,4.2808914E-1,-2.2555828E-1,1.5289192E-1,8.0470085E-1,8.500862E-2,-2.4038951E-1,2.4897766E-1,9.762723E-1,7.3908575E-2,3.0133864E-1,-7.356061E-1,2.0698574E-1,1.2693323E-1,4.7210622E-1,-1.253233E-1,-5.2168703E-1,-1.3844521E-1,4.3273926E-2,2.1513557E-1,4.682541E-2,7.7960825E-1,1.3084708E-1,9.499938E-1,-7.3809095E-2,5.4376155E-1,1.398354E0,1.3471882E-1,5.844594E-1,2.2068024E-3,-6.357918E-1,-2.871395E-1,1.796463E-1,-6.9738674E-1,-2.176013E-1,5.633403E-1,7.481375E-2,-3.1856665E-1,2.6733398E-2,5.6529045E-1,-9.153032E-2,2.2702217E-1,8.883683E-1,9.749365E-2,1.7534256E-2,2.9844534E-1,-9.897824E-2,3.49491E-1,1.5509993E-1,-4.1721344E-2,-8.171265E-1,-2.532444E-1,4.4172668E-1,1.0127044E-1,2.1271016E-1,5.747516E-1,-1.8480873E-1],"categories":[],"categories_nodes":[],"categories_segments":[],"categories_sizes":[],"default_left":[true,true,true,true,true,true,true,true,true,true,true,true,true,true,true,true,false,true,true,true,true,true,true,true,true,true,false,true,true,true,true,false,false,false,true,true,true,true,true,true,true,true,true,true,true,false,true,true,true,true,false,false,false,true,true,true,true,true,true,false,false,false,false,false,false,false,false,false,false,false,false,false,false,false,false,false,false,false,false,false,false,false,false,false,false,false,false,false,false,false,false,false,false,false,false,false,false,false,false,false,false],"id":15,"left_children":[1,3,5,7,9,11,13,15,17,19,21,23,25,27,29,31,-1,33,35,37,39,41,43,45,47,49,-1,51,53,55,57,-1,-1,-1,59,61,63,65,67,69,71,73,75,77,79,-1,81,83,85,87,-1,-1,-1,89,91,93,95,97,99,-1,-1,-1,-1,-1,-1,-1,-1,-1,-1,-1,-1,-1,-1,-1,-1,-1,-1,-1,-1,-1,-1,-1,-1,-1,-1,-1,-1,-1,-1,-1,-1,-1,-1,-1,-1,-1,-1,-1,-1,-1,-1],"loss_changes":[2.164669E0,2.5633535E0,4.337818E0,9.619014E-1,2.0665836E0,1.5919571E0,3.146101E0,3.0209854E-1,1.1661893E0,5.16346E0,4.338442E0,1.6495161E0,3.6943537E-1,2.7251616E0,3.3898163E0,8.390285E-6,0E0,1.7911005E-1,2.1565177E-1,2.8649178E0,3.2282724E0,1.0181708E0,2.6197753E0,7.289621E-1,1.2357788E0,1.9696648E-1,0E0,7.891097E-1,1.8107882E0,3.3869495E0,2.7728882E0,0E0,0E0,0E0,3.640008E-2,3.964492E-2,6.6836625E-3,3.2330146E0,3.053492E0,1.7534981E0,1.8811843E0,7.001953E-1,7.0775676E-1,2.2118735E-1,2.0165734E0,0E0,1.0237731E-1,5.557381E-1,8.1331253E-1,2.5026165E-3,0E0,0E0,0E0,1.970512E0,8.6122036E-1,4.7500086E-1,8.6810875E-1,2.1379118E0,1.7245226E0,0E0,0E0,0E0,0E0,0E0,0E0,0E0,0E0,0E0,0E0,0E0,0E0,0E0,0E0,0E0,0E0,0E0,0E0,0E0,0E0,0E0,0E0,0E0,0E0,0E0,0E0,0E0,0E0,0E0,0E0,0E0,0E0,0E0,0E0,0E0,0E0,0E0,0E0,0E0,0E0,0E0,0E0],"parents":[2147483647,0,0,1,1,2,2,3,3,4,4,5,5,6,6,7,7,8,8,9,9,10,10,11,11,12,12,13,13,14,14,15,15,17,17,18,18,19,19,20,20,21,21,22,22,23,23,24,24,25,25,27,27,28,28,29,29,30,30,34,34,35,35,36,36,37,37,38,38,39,39,40,40,41,41,42,42,43,43,44,44,46,46,47,47,48,48,49,49,53,53,54,54,55,55,56,56,57,57,58,58],"right_children":[2,4,6,8,10,12,14,16,18,20,22,24,26,28,30,32,-1,34,36,38,40,42,44,46,48,50,-1,52,54,56,58,-1,-1,-1,60,62,64,66,68,70,72,74,76,78,80,-1,82,84,86,88,-1,-1,-1,90,92,94,96,98,100,-1,-1,-1,-1,-1,-1,-1,-1,-1,-1,-1,-1,-1,-1,-1,-1,-1,-1,-1,-1,-1,-1,-1,-1,-1,-1,-1,-1,-1,-1,-1,-1,-1,-1,-1,-1,-1,-1,-1,-1,-1,-1],"split_conditions":[2.669149E1,2.08445E1,2.3752499E1,2.7055E1,2.5667E1,3.0199501E1,2.7098804E1,3.0515999E1,2.905E1,2.7356998E1,2.92795E1,3.0525501E1,2.9723999E1,2.8003834E1,2.3143501E1,2.167E1,1.2301827E-1,2.15595E1,2.1601E1,2.30705E1,3.06315E1,3.0365501E1,2.73405E1,2.6438E1,2.13765E1,3.0869E1,1.03228144E-1,2.6833473E1,2.1085E1,2.51375E1,2.96795E1,-2.2926522E-2,-6.1288835E-3,-3.2745555E-2,2.7192501E1,3.02695E1,2.7557E1,2.2E1,2.16745E1,3.1047E1,3.15835E1,2.7446999E1,2.3925999E1,2.25375E1,2.80055E1,1.2842675E-1,2.4312E1,2.94005E1,2.72535E1,2.8097E1,-7.211686E-2,7.46933E-2,2.928817E-1,2.4633E1,2.91545E1,2.901E1,2.1366001E1,3.0539001E1,2.703E1,-3.759699E-2,-1.5650612E-1,-4.1533567E-2,1.29821785E-2,6.454068E-2,1.4047624E-2,2.3388249E-1,3.9254125E-2,2.8499815E-1,-2.2142729E-2,1.6312847E-1,4.1950622E-1,4.041565E-2,1.7533784E-1,6.620407E-4,-1.9073755E-1,-8.6141855E-2,5.389389E-2,-2.0921603E-1,-6.528039E-2,1.690021E-1,2.2444127E-2,-9.557E-2,8.02002E-3,1.6958714E-1,-2.7459098E-2,6.810665E-2,2.6651052E-1,2.9248096E-2,5.260277E-3,8.9533605E-2,-2.9693471E-2,1.04847305E-1,4.652998E-2,-1.2516404E-2,-2.4513796E-1,-7.5973324E-2,1.3251801E-1,3.0381132E-2,6.381305E-2,1.724255E-1,-5.544262E-2],"split_indices":[13,23,12,2,12,14,2,4,14,11,20,15,17,21,0,0,0,10,22,0,6,7,23,1,22,3,0,0,16,21,17,0,0,0,2,2,1,2,3,19,18,21,15,15,18,0,0,2,20,1,0,0,0,2,12,2,23,23,9,0,0,0,0,0,0,0,0,0,0,0,0,0,0,0,0,0,0,0,0,0,0,0,0,0,0,0,0,0,0,0,0,0,0,0,0,0,0,0,0,0,0],"split_type":[0,0,0,0,0,0,0,0,0,0,0,0,0,0,0,0,0,0,0,0,0,0,0,0,0,0,0,0,0,0,0,0,0,0,0,0,0,0,0,0,0,0,0,0,0,0,0,0,0,0,0,0,0,0,0,0,0,0,0,0,0,0,0,0,0,0,0,0,0,0,0,0,0,0,0,0,0,0,0,0,0,0,0,0,0,0,0,0,0,0,0,0,0,0,0,0,0,0,0,0,0],"sum_hessian":[1.869E3,6.27E2,1.242E3,2.7E1,6E2,3.8E1,1.204E3,4E0,2.3E1,4.1E2,1.9E2,2.9E1,9E0,1.87E2,1.017E3,2E0,2E0,1.4E1,9E0,3.45E2,6.5E1,2.6E1,1.64E2,5E0,2.4E1,6E0,3E0,9E0,1.78E2,1.4E1,1.003E3,1E0,1E0,2E0,1.2E1,6E0,3E0,2.41E2,1.04E2,1.7E1,4.8E1,1.3E1,1.3E1,6E0,1.58E2,2E0,3E0,4E0,2E1,4E0,2E0,3E0,6E0,4.9E1,1.29E2,8E0,6E0,9.8E2,2.3E1,1E0,1.1E1,5E0,1E0,2E0,1E0,7E0,2.34E2,2E0,1.02E2,1.4E1,3E0,3.6E1,1.2E1,2E0,1.1E1,9E0,4E0,3E0,3E0,8E0,1.5E2,2E0,1E0,1E0,3E0,3E0,1.7E1,3E0,1E0,2.1E1,2.8E1,9.6E1,3.3E1,1E0,7E0,2E0,4E0,7.56E2,2.24E2,2E1,3E0],"tree_param":{"num_deleted":"0","num_feature":"24","num_nodes":"101","size_leaf_vector":"0"}},{"base_weights":[9.71027E-2,9.455222E-2,4.841226E-1,4.3802315E-1,9.189613E-2,6.206567E-1,5.5890083E-2,2.8551102E-2,5.471018E-1,4.7536412E-1,8.9758635E-2,1.13134384E-1,6.6995525E-1,-1.19841896E-1,2.91543E-1,2.5841045E-1,-1.342055E-1,9.393755E-2,6.373675E-1,1.9449207E-1,8.4804916E-1,7.080162E-2,1.3264012E-1,3.8211173E-1,7.651497E-1,2.7736092E-1,-8.453369E-3,8.320979E-2,-1.6165225E-1,1.2517479E-1,8.035653E-1,8.2551E-2,3.0542564E-1,4.1047096E-2,-5.372715E-2,8.085463E-2,1.0053883E0,-4.621507E-1,1.0912214E-1,2.5576475E-1,9.319376E-2,2.0412953E-1,1.0522509E0],"categories":[],"categories_nodes":[],"categories_segments":[],"categories_sizes":[],"default_left":[true,true,true,true,true,true,true,true,true,true,true,false,false,false,false,false,false,false,true,true,false,true,true,false,false,true,true,true,true,true,true,false,false,false,false,false,false,false,false,false,false,false,false],"id":16,"left_children":[1,3,5,7,9,11,13,15,17,19,21,-1,-1,-1,-1,-1,-1,-1,23,25,-1,27,29,-1,-1,31,33,35,37,39,41,-1,-1,-1,-1,-1,-1,-1,-1,-1,-1,-1,-1],"loss_changes":[1.8000755E0,1.655695E0,6.6693187E-1,6.096847E-1,1.4704247E0,1.4938593E-1,2.0058608E-1,1.8432462E-1,3.9008427E-1,8.8182926E-1,1.4839144E0,0E0,0E0,0E0,0E0,0E0,0E0,0E0,1.1816025E-3,1.2006962E-1,0E0,3.6938524E0,2.7142935E0,0E0,0E0,2.1232367E-3,8.928563E-3,2.5510273E0,5.3393044E0,2.3024197E0,6.796305E-1,0E0,0E0,0E0,0E0,0E0,0E0,0E0,0E0,0E0,0E0,0E0,0E0],"parents":[2147483647,0,0,1,1,2,2,3,3,4,4,5,5,6,6,7,7,8,8,9,9,10,10,18,18,19,19,21,21,22,22,25,25,26,26,27,27,28,28,29,29,30,30],"right_children":[2,4,6,8,10,12,14,16,18,20,22,-1,-1,-1,-1,-1,-1,-1,24,26,-1,28,30,-1,-1,32,34,36,38,40,42,-1,-1,-1,-1,-1,-1,-1,-1,-1,-1,-1,-1],"split_conditions":[3.2178497E1,2.01935E1,3.1842E1,2.68325E1,1.998E1,2.8336E1,2.9289501E1,3.0633E1,2.1467499E1,2.2262001E1,2.9130001E1,3.3940315E-2,2.0098658E-1,-3.595257E-2,8.74629E-2,7.752314E-2,-4.0261652E-2,2.8181268E-2,2.83965E1,2.48595E1,2.5441477E-1,3.03525E1,3.0451E1,1.1463352E-1,2.2954492E-1,2.38695E1,2.9193E1,3.03125E1,2.8295E1,2.7615002E1,3.0667E1,2.4765301E-2,9.1627695E-2,1.231413E-2,-1.6118146E-2,2.4256391E-2,3.016165E-1,-1.3864522E-1,3.2736644E-2,7.672943E-2,2.795813E-2,6.1238863E-2,3.1567526E-1],"split_indices":[21,20,20,17,16,0,0,0,7,15,15,0,0,0,0,0,0,0,3,14,0,4,18,0,0,2,0,4,21,6,5,0,0,0,0,0,0,0,0,0,0,0,0],"split_type":[0,0,0,0,0,0,0,0,0,0,0,0,0,0,0,0,0,0,0,0,0,0,0,0,0,0,0,0,0,0,0,0,0,0,0,0,0,0,0,0,0,0,0],"sum_hessian":[1.869E3,1.858E3,1.1E1,1.3E1,1.845E3,8E0,3E0,3E0,1E1,9E0,1.836E3,1E0,7E0,2E0,1E0,1E0,2E0,2E0,8E0,6E0,3E0,1.275E3,5.61E2,4E0,4E0,4E0,2E0,1.211E3,6.4E1,5.56E2,5E0,1E0,3E0,1E0,1E0,1.209E3,2E0,3E1,3.4E1,1.08E2,4.48E2,2E0,3E0],"tree_param":{"num_deleted":"0","num_feature":"24","num_nodes":"43","size_leaf_vector":"0"}},{"base_weights":[6.891605E-2,6.718677E-2,4.630077E-1,-1.9885384E-1,7.120744E-2,-6.532669E-4,5.293383E-1,-3.5282254E-1,2.3017073E-1,4.8575297E-1,6.867118E-2,-4.423523E-3,-4.3453857E-1,4.898262E-2,3.2908708E-1,-1.6127777E-1,8.785245E-1,7.090311E-2,-2.7463022E-1,3.9569378E-2,-9.019756E-2,1.282711E-1,-4.777311E-1,9.403483E-2,-4.3087006E-2,8.858363E-3,-2.7765465E-1,1.197451E0,5.413882E-2,8.442449E-2,1.6397618E-2,2.105031E-1,-4.5973057E-1,9.091695E-3,6.550121E-2,-6.5412354E-1,-2.1957326E-1,-3.3450127E-2,4.673767E-2,-9.77335E-2,1.7894173E-1,6.13931E-2,1.409794E-1,-1.15249835E-1,6.9196604E-2,-7.641323E-1,-6.338272E-2],"categories":[],"categories_nodes":[],"categories_segments":[],"categories_sizes":[],"default_left":[true,true,true,true,true,false,false,true,true,true,true,true,true,true,false,true,true,true,true,true,false,false,true,false,false,true,false,false,true,true,true,false,true,false,false,false,false,false,false,false,false,false,false,false,false,false,false],"id":17,"left_children":[1,3,5,7,9,-1,-1,11,13,15,17,19,21,23,-1,25,27,29,31,33,-1,-1,35,-1,-1,37,-1,-1,39,41,43,-1,45,-1,-1,-1,-1,-1,-1,-1,-1,-1,-1,-1,-1,-1,-1],"loss_changes":[1.2432871E0,2.00694E0,2.463851E-1,1.9307873E0,1.8970032E0,0E0,0E0,5.959432E-1,1.2726018E-1,2.937174E0,1.4185953E0,2.2436306E-2,4.7453547E-1,2.064344E-2,0E0,1.01459116E-1,1.7756004E0,1.3362513E0,1.1743549E0,2.565852E-3,0E0,0E0,5.849652E-1,0E0,0E0,6.37123E-3,0E0,0E0,7.4350916E-2,1.8852348E0,2.5241833E0,0E0,1.0374078E0,0E0,0E0,0E0,0E0,0E0,0E0,0E0,0E0,0E0,0E0,0E0,0E0,0E0,0E0],"parents":[2147483647,0,0,1,1,2,2,3,3,4,4,7,7,8,8,9,9,10,10,11,11,12,12,13,13,15,15,16,16,17,17,18,18,19,19,22,22,25,25,28,28,29,29,30,30,32,32],"right_children":[2,4,6,8,10,-1,-1,12,14,16,18,20,22,24,-1,26,28,30,32,34,-1,-1,36,-1,-1,38,-1,-1,40,42,44,-1,46,-1,-1,-1,-1,-1,-1,-1,-1,-1,-1,-1,-1,-1,-1],"split_conditions":[3.2322E1,2.0508E1,2.2014E1,2.9208E1,2.06405E1,-1.9598009E-4,1.588015E-1,2.7691E1,2.9303688E1,2.7730999E1,3.1949501E1,2.7328999E1,2.7475E1,2.03745E1,9.872613E-2,2.80285E1,2.9032501E1,2.9769001E1,2.91205E1,2.0031E1,-2.705927E-2,3.8481332E-2,2.9152E1,2.821045E-2,-1.2926103E-2,2.0579498E1,-8.3296396E-2,3.5923532E-1,2.05955E1,2.849E1,2.5571E1,6.3150935E-2,2.42215E1,2.7275085E-3,1.9650364E-2,-1.9623707E-1,-6.5871984E-2,-1.0035038E-2,1.4021302E-2,-2.932005E-2,5.368252E-2,1.841793E-2,4.229382E-2,-3.4574952E-2,2.0758983E-2,-2.292397E-1,-1.9014817E-2],"split_indices":[4,0,11,19,0,0,0,7,19,20,4,2,8,0,0,8,7,6,18,0,0,0,6,0,0,0,0,0,0,19,23,0,13,0,0,0,0,0,0,0,0,0,0,0,0,0,0],"split_type":[0,0,0,0,0,0,0,0,0,0,0,0,0,0,0,0,0,0,0,0,0,0,0,0,0,0,0,0,0,0,0,0,0,0,0,0,0,0,0,0,0,0,0,0,0,0,0],"sum_hessian":[1.869E3,1.862E3,7E0,2.7E1,1.835E3,1E0,6E0,2E1,7E0,1E1,1.825E3,4E0,1.6E1,3E0,4E0,4E0,6E0,1.814E3,1.1E1,3E0,1E0,1E0,1.5E1,2E0,1E0,2E0,2E0,4E0,2E0,1.453E3,3.61E2,3E0,8E0,2E0,1E0,8E0,7E0,1E0,1E0,1E0,1E0,1.034E3,4.19E2,1.03E2,2.58E2,4E0,4E0],"tree_param":{"num_deleted":"0","num_feature":"24","num_nodes":"47","size_leaf_vector":"0"}},{"base_weights":[4.8354015E-2,4.347964E-2,1.8979575E-1,5.6511518E-2,-2.4140967E-2,2.216465E-1,-5.104847E-1,1.894162E-1,4.048202E-2,1.7474627E-1,-5.8117103E-2,2.9278463E-1,3.939173E-2,1.2218623E-1,3.9309368E-1,3.786381E-2,4.2784247E-1,2.3854157E-2,4.5482126E-1,-1.0200247E-1,1.0387216E-1,2.0213643E-1,7.300987E-1,-3.5567322E-1,1.7767265E-1,4.843521E-2,3.6211422E-1,-4.5560837E-2,4.8752224E-1,4.742053E-2,-6.691862E-2,7.079633E-1,-9.929943E-2,-2.730775E-1,1.3074502E-1,-1.1043867E-1,5.502796E-1,-3.2430962E-1,-6.037435E-2,2.3699628E-1,-1.5382998E-1,-7.0219316E-2,2.5711557E-1,2.964923E-1,-1.9349957E-1,1.5804866E-1,-1.9798265E-1,4.8732018E-1,-1.9906203E-1,1.3934374E-1,-1.8437234E-1,5.989156E-1,1.2392722E-1,2.4230834E-2,1.1068112E-1,-9.863605E-2,2.3615542E-1,-2.0923233E-1,1.15249634E-1,-1.1249479E-1,-3.0785593E-1,3.3480644E-1,3.3296585E-2,7.719803E-2,5.832699E-1,-1.1521981E-1,-7.5187624E-1,-3.3326575E-1,-2.9456401E-2,3.7449846E-1,-6.921625E-2,-3.4316316E-1,1.5063546E-2,-1.4958636E-1,2.0299149E-1,4.7285873E-2,3.7015763E-1,3.725285E-1,-3.0447006E-2],"categories":[],"categories_nodes":[],"categories_segments":[],"categories_sizes":[],"default_left":[true,true,true,true,true,true,false,true,true,true,true,true,true,true,true,true,true,true,true,true,true,true,false,false,true,true,true,true,true,true,true,false,true,true,true,false,true,true,true,true,true,true,true,true,false,false,false,false,false,false,false,false,false,false,false,false,false,false,false,false,false,false,false,false,false,false,false,false,false,false,false,false,false,false,false,false,false,false,false],"id":18,"left_children":[1,3,5,7,9,11,-1,13,15,17,19,21,23,25,27,29,31,33,35,37,39,41,-1,-1,43,45,47,49,51,53,55,-1,57,59,61,-1,63,65,67,69,71,73,75,77,-1,-1,-1,-1,-1,-1,-1,-1,-1,-1,-1,-1,-1,-1,-1,-1,-1,-1,-1,-1,-1,-1,-1,-1,-1,-1,-1,-1,-1,-1,-1,-1,-1,-1,-1],"loss_changes":[1.2810001E0,1.5954974E0,1.4960237E0,3.224142E0,1.9900799E0,7.6638246E-1,0E0,2.1839662E0,1.3580279E0,1.8063784E0,1.7949437E0,1.557015E0,1.0465325E0,2.176633E0,1.6790724E0,1.3520274E0,1.3992712E0,9.561426E-1,8.701539E-1,1.8127575E0,1.8890011E0,5.720881E-1,0E0,0E0,6.7480695E-1,2.6243193E0,2.1346228E0,2.3102616E-1,1.2623458E0,1.8090556E0,1.109532E0,0E0,1.1845794E-1,1.0046363E-2,4.2633235E-1,0E0,1.5786505E-1,2.6847637E0,1.4076397E0,1.541697E0,6.127351E-1,1.821523E-1,7.178037E-1,2.8479373E-1,0E0,0E0,0E0,0E0,0E0,0E0,0E0,0E0,0E0,0E0,0E0,0E0,0E0,0E0,0E0,0E0,0E0,0E0,0E0,0E0,0E0,0E0,0E0,0E0,0E0,0E0,0E0,0E0,0E0,0E0,0E0,0E0,0E0,0E0,0E0],"parents":[2147483647,0,0,1,1,2,2,3,3,4,4,5,5,7,7,8,8,9,9,10,10,11,11,12,12,13,13,14,14,15,15,16,16,17,17,18,18,19,19,20,20,21,21,24,24,25,25,26,26,27,27,28,28,29,29,30,30,32,32,33,33,34,34,36,36,37,37,38,38,39,39,40,40,41,41,42,42,43,43],"right_children":[2,4,6,8,10,12,-1,14,16,18,20,22,24,26,28,30,32,34,36,38,40,42,-1,-1,44,46,48,50,52,54,56,-1,58,60,62,-1,64,66,68,70,72,74,76,78,-1,-1,-1,-1,-1,-1,-1,-1,-1,-1,-1,-1,-1,-1,-1,-1,-1,-1,-1,-1,-1,-1,-1,-1,-1,-1,-1,-1,-1,-1,-1,-1,-1,-1,-1],"split_conditions":[3.1421E1,2.98585E1,2.6036499E1,2.4831E1,2.0907E1,2.85965E1,-1.5314542E-1,2.3157833E1,3.2211502E1,2.98395E1,2.85055E1,2.60475E1,2.876E1,2.873E1,2.0979E1,2.9211859E1,2.92765E1,2.78085E1,2.3763E1,2.59035E1,2.27095E1,2.27295E1,2.1902962E-1,-1.0670197E-1,2.9095001E1,3.0746E1,2.9057E1,2.80565E1,2.4359667E1,2.85915E1,3.00135E1,2.1238899E-1,2.89855E1,3.0456001E1,2.1477E1,-3.3131603E-2,2.2347E1,2.83255E1,2.321E1,3.12165E1,2.84975E1,3.2357002E1,2.97705E1,2.36455E1,-5.8049873E-2,4.74146E-2,-5.93948E-2,1.4619607E-1,-5.9718613E-2,4.180312E-2,-5.5311702E-2,1.7967469E-1,3.7178166E-2,7.2692507E-3,3.3204336E-2,-2.9590817E-2,7.084663E-2,-6.27697E-2,3.4574892E-2,-3.3748437E-2,-9.2356786E-2,1.0044194E-1,9.988976E-3,2.3159409E-2,1.7498097E-1,-3.4565944E-2,-2.2556289E-1,-9.997973E-2,-8.83692E-3,1.1234954E-1,-2.0764876E-2,-1.02948956E-1,4.519064E-3,-4.4875912E-2,6.0897447E-2,1.4185763E-2,1.1104729E-1,1.1175855E-1,-9.134103E-3],"split_indices":[0,0,8,20,19,5,0,9,22,22,5,18,5,17,7,12,13,14,5,22,20,21,0,0,16,14,5,2,20,23,12,0,1,0,8,0,8,4,5,2,16,0,13,8,0,0,0,0,0,0,0,0,0,0,0,0,0,0,0,0,0,0,0,0,0,0,0,0,0,0,0,0,0,0,0,0,0,0,0],"split_type":[0,0,0,0,0,0,0,0,0,0,0,0,0,0,0,0,0,0,0,0,0,0,0,0,0,0,0,0,0,0,0,0,0,0,0,0,0,0,0,0,0,0,0,0,0,0,0,0,0,0,0,0,0,0,0,0,0,0,0,0,0,0,0,0,0,0,0,0,0,0,0,0,0,0,0,0,0,0,0],"sum_hessian":[1.869E3,1.808E3,6.1E1,1.516E3,2.92E2,5.9E1,2E0,1.62E2,1.354E3,4.2E1,2.5E2,4.2E1,1.7E1,1.23E2,3.9E1,1.346E3,8E0,2.8E1,1.4E1,1.97E2,5.3E1,3.6E1,6E0,4E0,1.3E1,9.5E1,2.8E1,7E0,3.2E1,1.234E3,1.12E2,5E0,3E0,7E0,2.1E1,2E0,1.2E1,3E1,1.67E2,3.5E1,1.8E1,6E0,3E1,1E1,3E0,6.6E1,2.9E1,2.3E1,5E0,3E0,4E0,2.4E1,8E0,9.04E2,3.3E2,1.02E2,1E1,2E0,1E0,2E0,5E0,6E0,1.5E1,1E0,1.1E1,2.1E1,9E0,1.6E1,1.51E2,2.4E1,1.1E1,8E0,1E1,5E0,1E0,1.1E1,1.9E1,8E0,2E0],"tree_param":{"num_deleted":"0","num_feature":"24","num_nodes":"79","size_leaf_vector":"0"}},{"base_weights":[3.4095064E-2,3.014396E-2,1.9738084E-1,3.8044993E-2,-6.6833526E-2,4.2644554E-1,8.756515E-2,3.149744E-2,1.5832348E-1,-9.687771E-2,3.2741985E-1,2.622816E-1,6.694843E-1,-1.581111E-1,2.3059264E-1,4.3340515E-2,-8.618077E-2,2.2073434E-1,-2.929455E-1,-1.1695065E-1,4.2432135E-1,4.7644958E-1,1.4865844E-1,3.4704617E-1,4.8373222E-2,7.36742E-2,-2.4355888E-1,-3.1948727E-2,3.2023633E-1,4.6016756E-2,-4.4748044E-1,-2.877941E-2,-5.8939415E-1,5.4454803E-1,7.272946E-2,-4.4739777E-1,-1.8123245E-2,-3.225578E-2,-2.8968513E-1,5.564003E-1,-5.1997185E-2,1.6393356E-1,3.6141396E-2,3.7733683E-1,8.265114E-2,8.93631E-2,-3.7298203E-2,-2.2963205E-2,1.8179321E-1,-5.8432896E-2,-2.8810447E-1,1.4841588E-1,-1.59235E-1,4.3777162E-1,7.097149E-2,3.9342877E-2,3.7191042E-1,9.182676E-2,-6.42554E-1,9.114132E-1,-5.009085E-2,-5.8755238E-2,-6.6651124E-1,7.347168E-1,1.4596494E-1,-1.5609755E-1,3.0733788E-1,6.438732E-2,-1.7408276E-1,-8.740242E-2,4.4313833E-1,-4.2276147E-1,6.7146145E-2,1.206398E-3,-3.5651207E-2,-3.3117485E-1,-1.2028567E-1,2.3831367E-2,4.8111704E-1,9.9917985E-2,-3.6880493E-2],"categories":[],"categories_nodes":[],"categories_segments":[],"categories_sizes":[],"default_left":[true,true,true,true,true,true,true,true,true,true,true,true,false,true,true,true,true,true,true,true,true,false,true,true,true,true,true,true,true,true,true,true,true,true,true,false,true,true,true,false,false,false,false,false,false,false,false,true,false,false,true,false,false,true,true,false,false,false,false,false,false,false,false,false,false,false,false,false,false,false,false,false,false,false,false,false,false,false,false,false,false],"id":19,"left_children":[1,3,5,7,9,11,13,15,17,19,21,23,-1,25,27,29,31,33,35,37,39,-1,41,43,45,47,49,51,53,55,57,59,61,63,65,-1,67,69,71,-1,-1,-1,-1,-1,-1,-1,-1,73,-1,-1,75,-1,-1,77,79,-1,-1,-1,-1,-1,-1,-1,-1,-1,-1,-1,-1,-1,-1,-1,-1,-1,-1,-1,-1,-1,-1,-1,-1,-1,-1],"loss_changes":[1.2004981E0,1.4024311E0,1.069474E0,1.3259385E0,1.6663327E0,3.829813E-1,1.1257515E0,2.2391844E0,2.5149384E0,1.3992225E0,1.9557953E-1,1.6453081E-1,0E0,2.5561044E-1,4.8093474E-1,1.9357557E0,4.229152E0,3.6506977E0,4.5880783E-1,1.8193718E0,3.4348947E-1,0E0,4.387483E-3,2.4873555E-2,1.7379727E-2,4.596792E-2,5.7384193E-2,1.6138063E-1,4.0839183E-1,3.1412578E0,9.0064013E-1,2.7105556E0,5.746589E-1,1.7119098E0,2.9469507E0,0E0,7.5550266E-2,2.2671242E0,1.9753046E0,0E0,0E0,0E0,0E0,0E0,0E0,0E0,0E0,9.630014E-4,0E0,0E0,1.0760546E-2,0E0,0E0,1.679585E-1,2.2416646E-2,0E0,0E0,0E0,0E0,0E0,0E0,0E0,0E0,0E0,0E0,0E0,0E0,0E0,0E0,0E0,0E0,0E0,0E0,0E0,0E0,0E0,0E0,0E0,0E0,0E0,0E0],"parents":[2147483647,0,0,1,1,2,2,3,3,4,4,5,5,6,6,7,7,8,8,9,9,10,10,11,11,13,13,14,14,15,15,16,16,17,17,18,18,19,19,20,20,22,22,23,23,24,24,25,25,26,26,27,27,28,28,29,29,30,30,31,31,32,32,33,33,34,34,36,36,37,37,38,38,47,47,50,50,53,53,54,54],"right_children":[2,4,6,8,10,12,14,16,18,20,22,24,-1,26,28,30,32,34,36,38,40,-1,42,44,46,48,50,52,54,56,58,60,62,64,66,-1,68,70,72,-1,-1,-1,-1,-1,-1,-1,-1,74,-1,-1,76,-1,-1,78,80,-1,-1,-1,-1,-1,-1,-1,-1,-1,-1,-1,-1,-1,-1,-1,-1,-1,-1,-1,-1,-1,-1,-1,-1,-1,-1],"split_conditions":[3.1584E1,3.07975E1,3.17365E1,3.118E1,2.97835E1,2.928E1,2.9324501E1,3.03665E1,2.3985E1,3.1692501E1,2.85755E1,2.92735E1,2.008453E-1,2.32085E1,3.0815498E1,3.1918E1,2.4325E1,3.0523E1,2.4871E1,2.9247501E1,3.1728E1,1.4293487E-1,3.1713501E1,3.1719501E1,2.8895E1,3.0567001E1,2.771E1,2.59155E1,2.9515E1,3.1263E1,2.8675999E1,2.0448502E1,2.7824001E1,2.70865E1,2.85485E1,-1.3421933E-1,2.6138E1,2.8931E1,2.82425E1,1.669201E-1,-1.5599156E-2,4.918007E-2,1.0842419E-2,1.1320105E-1,2.4795342E-2,2.680893E-2,-1.1189461E-2,2.8048E1,5.4537967E-2,-1.752987E-2,2.9519001E1,4.4524767E-2,-4.7770504E-2,2.06955E1,3.1001E1,1.1802863E-2,1.1157313E-1,2.7548028E-2,-1.927662E-1,2.7342397E-1,-1.5027256E-2,-1.7626572E-2,-1.9995338E-1,2.2041504E-1,4.3789484E-2,-4.6829265E-2,9.220137E-2,1.9316196E-2,-5.222483E-2,-2.6220726E-2,1.329415E-1,-1.2682845E-1,2.0143844E-2,3.619194E-4,-1.0695362E-2,-9.935246E-2,-3.6085702E-2,7.1494104E-3,1.4433512E-1,2.9975398E-2,-1.10641485E-2],"split_indices":[14,2,14,4,17,17,4,4,0,15,6,5,0,11,3,5,12,17,0,16,1,0,2,2,0,1,0,0,6,5,4,10,7,1,9,0,0,18,12,0,0,0,0,0,0,0,0,0,0,0,5,0,0,9,1,0,0,0,0,0,0,0,0,0,0,0,0,0,0,0,0,0,0,0,0,0,0,0,0,0,0],"split_type":[0,0,0,0,0,0,0,0,0,0,0,0,0,0,0,0,0,0,0,0,0,0,0,0,0,0,0,0,0,0,0,0,0,0,0,0,0,0,0,0,0,0,0,0,0,0,0,0,0,0,0,0,0,0,0,0,0,0,0,0,0,0,0,0,0,0,0,0,0,0,0,0,0,0,0,0,0,0,0,0,0],"sum_hessian":[1.869E3,1.826E3,4.3E1,1.689E3,1.37E2,1.3E1,3E1,1.603E3,8.6E1,1.28E2,9E0,9E0,4E0,1.1E1,1.9E1,1.457E3,1.46E2,7.6E1,1E1,1.24E2,4E0,4E0,5E0,6E0,3E0,3E0,8E0,5E0,1.4E1,1.45E3,7E0,1.32E2,1.4E1,2.3E1,5.3E1,6E0,4E0,8.4E1,4E1,3E0,1E0,4E0,1E0,5E0,1E0,2E0,1E0,2E0,1E0,2E0,6E0,2E0,3E0,9E0,5E0,1.422E3,2.8E1,2E0,5E0,2E0,1.3E2,2E0,1.2E1,1.5E1,8E0,2.7E1,2.6E1,3E0,1E0,7.6E1,8E0,2.9E1,1.1E1,1E0,1E0,4E0,2E0,1E0,8E0,4E0,1E0],"tree_param":{"num_deleted":"0","num_feature":"24","num_nodes":"81","size_leaf_vector":"0"}},{"base_weights":[2.4352621E-2,6.1716672E-2,9.175355E-3,3.2768663E-2,3.447518E-1,-1.9447136E-1,1.9446816E-2,5.4706675E-1,2.0939039E-2,-8.938349E-2,4.8419937E-1,-2.490597E-1,2.1877956E-1,-2.9455137E-1,2.344085E-2,2.987923E-1,1.1095346E0,8.7354565E-1,1.734289E-2,-2.2396503E-1,4.3387666E-1,-6.6390896E-1,5.331728E-1,-4.840256E-1,-1.536189E-1,2.7435684E-1,-8.513069E-2,-6.0713416E-1,-9.727426E-2,-1.9666368E-2,4.201515E-2,4.001642E-1,-3.7339527E-2,-3.4364495E-1,2.8127657E-2,-1.3170242E-2,-3.4253773E-1,7.489991E-1,2.3520076E-1,-1.2073088E-1,-5.5857587E-1,-3.8714728E-1,-8.728437E-2,3.9086914E-1,1.495781E-1,-7.013275E-1,-6.808376E-2,1.08737186E-1,-2.3052897E-1,1.3268358E-1,-4.7694433E-2,1.0650782E-1,4.1532326E-3,4.5640597E-1,3.135681E-2,3.1505203E-1,-4.7968212E-1,1.9958816E-2,4.4161332E-1,-1.8218994E-1,1.6023953E-1,-1.2746239E-1,-4.030754E-1,3.1807184E-1,9.417433E-1,4.7293365E-1,-2.8665543E-2,4.6017966E-3,-2.4836445E-1,-1.6201337E-1,-6.1594963E-1,4.411888E-2,-4.465704E-1,-1.8255699E-1,1.0259517E-1,-4.62087E-3,1.858495E-1,-3.4163857E-1,3.1496685E-2,-1.8188365E-1,2.0856114E-1,3.0697056E-3,-1.3699576E-1,3.474864E-1,8.607125E-2,-1.5246811E-2,1.0967727E-1],"categories":[],"categories_nodes":[],"categories_segments":[],"categories_sizes":[],"default_left":[true,true,true,true,true,true,true,true,true,true,true,true,true,true,true,true,false,false,true,true,false,false,true,true,true,true,false,true,true,true,true,true,false,true,true,true,true,true,true,true,true,true,true,false,false,false,false,true,true,true,true,true,true,false,false,false,false,false,false,false,false,false,false,false,false,false,false,false,false,false,false,false,false,false,false,false,false,false,false,false,false,false,false,false,false,false,false],"id":20,"left_children":[1,3,5,7,9,11,13,15,17,19,21,23,25,27,29,31,-1,-1,33,35,-1,-1,37,39,41,43,-1,45,47,49,51,53,-1,55,57,59,61,63,65,67,69,71,73,-1,-1,-1,-1,75,77,79,81,83,85,-1,-1,-1,-1,-1,-1,-1,-1,-1,-1,-1,-1,-1,-1,-1,-1,-1,-1,-1,-1,-1,-1,-1,-1,-1,-1,-1,-1,-1,-1,-1,-1,-1,-1],"loss_changes":[1.0598812E0,4.4130874E0,2.7879004E0,2.9757652E0,3.0702353E0,1.498245E0,1.5971279E0,1.2045901E0,1.459645E0,1.0126483E0,2.4905968E0,1.2038887E0,1.5848023E-1,9.275886E-1,1.0040864E0,3.216108E-1,0E0,0E0,1.8783878E0,2.704283E-1,0E0,0E0,2.203312E0,3.659022E-1,6.168299E-1,4.3302357E-2,0E0,2.569008E-1,3.27039E-1,1.6204162E0,2.138589E0,1.3088512E-1,0E0,1.4056268E0,1.5685713E0,1.7574239E-1,3.9764106E-2,1.4446917E0,1.0799619E0,6.512955E-2,1.959877E-1,2.5034678E-1,6.3380027E-1,0E0,0E0,0E0,0E0,4.4565305E-2,2.1455544E-1,1.4461812E0,1.4510779E0,1.5657189E0,1.1337577E0,0E0,0E0,0E0,0E0,0E0,0E0,0E0,0E0,0E0,0E0,0E0,0E0,0E0,0E0,0E0,0E0,0E0,0E0,0E0,0E0,0E0,0E0,0E0,0E0,0E0,0E0,0E0,0E0,0E0,0E0,0E0,0E0,0E0,0E0],"parents":[2147483647,0,0,1,1,2,2,3,3,4,4,5,5,6,6,7,7,8,8,9,9,10,10,11,11,12,12,13,13,14,14,15,15,18,18,19,19,22,22,23,23,24,24,25,25,27,27,28,28,29,29,30,30,31,31,33,33,34,34,35,35,36,36,37,37,38,38,39,39,40,40,41,41,42,42,47,47,48,48,49,49,50,50,51,51,52,52],"right_children":[2,4,6,8,10,12,14,16,18,20,22,24,26,28,30,32,-1,-1,34,36,-1,-1,38,40,42,44,-1,46,48,50,52,54,-1,56,58,60,62,64,66,68,70,72,74,-1,-1,-1,-1,76,78,80,82,84,86,-1,-1,-1,-1,-1,-1,-1,-1,-1,-1,-1,-1,-1,-1,-1,-1,-1,-1,-1,-1,-1,-1,-1,-1,-1,-1,-1,-1,-1,-1,-1,-1,-1,-1],"split_conditions":[2.5687E1,2.5118E1,2.40105E1,2.75405E1,2.47275E1,2.5833E1,2.22025E1,3.09315E1,2.16745E1,3.18895E1,2.6716E1,2.9163E1,2.9597773E1,2.0899E1,2.8219414E1,2.7151333E1,3.328604E-1,2.620637E-1,2.27285E1,2.5483002E1,1.30163E-1,-1.9917269E-1,2.828E1,2.7878E1,2.6271E1,2.2475E1,-2.5539208E-2,3.1442001E1,2.9404E1,2.6715E1,2.90625E1,2.6185863E1,-1.12018585E-2,2.99735E1,2.86795E1,2.33575E1,2.9035E1,2.26285E1,2.5381E1,2.55075E1,2.10935E1,2.81035E1,2.98475E1,1.1726075E-1,4.487343E-2,-2.1039826E-1,-2.042513E-2,2.7748001E1,3.1312E1,2.79455E1,2.7564499E1,2.3585499E1,3.12715E1,1.369218E-1,9.407043E-3,9.4515614E-2,-1.4390464E-1,5.987645E-3,1.32484E-1,-5.4656986E-2,4.807186E-2,-3.823872E-2,-1.20922625E-1,9.542156E-2,2.82523E-1,1.418801E-1,-8.599663E-3,1.380539E-3,-7.450934E-2,-4.860401E-2,-1.8478489E-1,1.3235665E-2,-1.3397112E-1,-5.47671E-2,3.0778553E-2,-1.3862611E-3,5.575485E-2,-1.0249157E-1,9.449006E-3,-5.4565098E-2,6.2568344E-2,9.209117E-4,-4.109873E-2,1.0424592E-1,2.5821377E-2,-4.5740437E-3,3.2903183E-2],"split_indices":[12,12,1,6,0,3,11,3,3,3,19,8,8,10,0,13,0,0,3,12,0,0,22,10,17,2,0,3,4,0,12,0,0,6,23,0,5,9,12,0,2,6,20,0,0,0,0,0,4,18,2,20,12,0,0,0,0,0,0,0,0,0,0,0,0,0,0,0,0,0,0,0,0,0,0,0,0,0,0,0,0,0,0,0,0,0,0],"split_type":[0,0,0,0,0,0,0,0,0,0,0,0,0,0,0,0,0,0,0,0,0,0,0,0,0,0,0,0,0,0,0,0,0,0,0,0,0,0,0,0,0,0,0,0,0,0,0,0,0,0,0,0,0,0,0,0,0,0,0,0,0,0,0,0,0,0,0,0,0,0,0,0,0,0,0,0,0,0,0,0,0,0,0,0,0,0,0],"sum_hessian":[1.869E3,5.39E2,1.33E3,4.9E2,4.9E1,6.3E1,1.267E3,1E1,4.8E2,1.2E1,3.7E1,5.6E1,7E0,1.5E1,1.252E3,8E0,2E0,1E0,4.79E2,1E1,2E0,1E0,3.6E1,1.5E1,4.1E1,6E0,1E0,5E0,1E1,3.77E2,8.75E2,6E0,2E0,1.3E1,4.66E2,4E0,6E0,2E1,1.6E1,3E0,1.2E1,8E0,3.3E1,2E0,4E0,4E0,1E0,4E0,6E0,5.8E1,3.19E2,3.23E2,5.52E2,5E0,1E0,2E0,1.1E1,4.58E2,8E0,2E0,2E0,2E0,4E0,7E0,1.3E1,8E0,8E0,2E0,1E0,2E0,1E1,1E0,7E0,2.2E1,1.1E1,2E0,2E0,4E0,2E0,1.1E1,4.7E1,2.04E2,1.15E2,2.4E1,2.99E2,4.67E2,8.5E1],"tree_param":{"num_deleted":"0","num_feature":"24","num_nodes":"87","size_leaf_vector":"0"}},{"base_weights":[1.7387837E-2,1.5501272E-2,3.081994E-1,-3.0879708E-2,2.5494881E-2,4.2975616E-1,5.206871E-2,-2.3662537E-1,7.7077484E-4,2.0823976E-1,1.7244603E-2,8.500099E-2,4.668639E-1,-1.0120201E-1,1.879832E-1,2.7685868E-2,-4.2067492E-1,2.8353545E-1,-2.6110929E-2,9.90271E-1,1.4181402E-1,2.2225745E-2,-1.0397421E-1,4.7941908E-1,-5.3660337E-2,-5.5690575E-1,-2.1533012E-1,7.983036E-1,7.896112E-2,-1.5885432E-1,9.753209E-3,-9.703636E-3,1.2426906E0,2.1361712E-1,-2.529238E-1,1.7655293E-2,3.9515764E-1,-4.299461E-1,-1.8535128E-2,-2.359472E-1,6.721861E-2,4.435253E-2,-6.030208E-1,-3.848753E-1,9.900818E-2,9.855283E-1,-1.6252232E-1,-9.136295E-2,4.632238E-1,-9.501076E-2,-3.850298E-1,1.7256126E-1,-3.372138E-2,4.9584287E-1,5.4305486E-2,-3.834281E-1,1.7939568E-1,-2.0057678E-1,2.1306157E-2,1.8700726E-1,7.455988E-1,-5.9848E-1,5.6741714E-2,1.8952994E-1,-1.938773E-1],"categories":[],"categories_nodes":[],"categories_segments":[],"categories_sizes":[],"default_left":[true,true,true,true,true,true,true,true,true,true,true,false,false,false,false,true,true,true,true,true,true,true,true,false,true,true,true,true,true,true,true,false,false,true,true,true,true,true,true,false,false,false,false,false,false,false,false,false,false,false,false,false,false,false,false,false,false,false,false,false,false,false,false,false,false],"id":21,"left_children":[1,3,5,7,9,11,13,15,17,19,21,-1,-1,-1,-1,23,25,27,29,31,33,35,37,-1,39,41,43,45,47,49,51,-1,-1,53,55,57,59,61,63,-1,-1,-1,-1,-1,-1,-1,-1,-1,-1,-1,-1,-1,-1,-1,-1,-1,-1,-1,-1,-1,-1,-1,-1,-1,-1],"loss_changes":[1.0211706E0,8.624586E-1,3.512361E-1,2.1491256E0,2.3031836E0,6.266081E-2,1.2318283E-1,2.1520867E0,2.188947E0,3.2880683E0,8.868897E-1,0E0,0E0,0E0,0E0,7.239146E-1,6.074128E-1,2.5696735E0,1.2536205E0,1.2741241E0,1.8113194E0,2.392913E0,1.6073738E0,0E0,3.90449E-1,4.4265127E-1,6.776404E-1,1.4194026E0,1.2858559E0,7.720493E-1,1.4780457E0,0E0,0E0,2.3560512E0,6.3298094E-1,1.1133292E0,1.1006231E0,1.0182395E0,1.7514268E0,0E0,0E0,0E0,0E0,0E0,0E0,0E0,0E0,0E0,0E0,0E0,0E0,0E0,0E0,0E0,0E0,0E0,0E0,0E0,0E0,0E0,0E0,0E0,0E0,0E0,0E0],"parents":[2147483647,0,0,1,1,2,2,3,3,4,4,5,5,6,6,7,7,8,8,9,9,10,10,15,15,16,16,17,17,18,18,19,19,20,20,21,21,22,22,24,24,25,25,26,26,27,27,28,28,29,29,30,30,33,33,34,34,35,35,36,36,37,37,38,38],"right_children":[2,4,6,8,10,12,14,16,18,20,22,-1,-1,-1,-1,24,26,28,30,32,34,36,38,-1,40,42,44,46,48,50,52,-1,-1,54,56,58,60,62,64,-1,-1,-1,-1,-1,-1,-1,-1,-1,-1,-1,-1,-1,-1,-1,-1,-1,-1,-1,-1,-1,-1,-1,-1,-1,-1],"split_conditions":[3.2178497E1,2.3491001E1,2.94035E1,2.5047E1,2.4092E1,2.8336E1,2.9289501E1,2.0911499E1,2.3659E1,2.7873001E1,3.0216E1,2.55003E-2,1.4005917E-1,-3.0360604E-2,5.639496E-2,2.6692001E1,2.28925E1,2.5928501E1,2.6935501E1,2.10765E1,2.9833E1,2.98755E1,3.04615E1,1.4382572E-1,2.626E1,2.0119E1,2.5014E1,2.3032001E1,3.0543499E1,3.09705E1,2.7977001E1,-2.9110909E-3,3.7280717E-1,2.3234001E1,3.0811E1,2.0501999E1,2.9292E1,2.7952E1,2.76805E1,-7.078417E-2,2.0165583E-2,1.330576E-2,-1.8090624E-1,-1.15462594E-1,2.9702455E-2,2.956585E-1,-4.8756696E-2,-2.7408887E-2,1.3896714E-1,-2.8503228E-2,-1.15508944E-1,5.176838E-2,-1.0116414E-2,1.4875287E-1,1.6291646E-2,-1.1502843E-1,5.3818706E-2,-6.017304E-2,6.3918475E-3,5.6102183E-2,2.2367965E-1,-1.79544E-1,1.7022515E-2,5.6858983E-2,-5.8163192E-2],"split_indices":[21,14,12,11,14,0,0,13,12,9,6,0,0,0,0,10,14,3,17,1,4,6,6,0,15,1,23,2,4,20,17,0,0,13,4,0,7,14,15,0,0,0,0,0,0,0,0,0,0,0,0,0,0,0,0,0,0,0,0,0,0,0,0,0,0],"split_type":[0,0,0,0,0,0,0,0,0,0,0,0,0,0,0,0,0,0,0,0,0,0,0,0,0,0,0,0,0,0,0,0,0,0,0,0,0,0,0,0,0,0,0,0,0,0,0,0,0,0,0,0,0,0,0,0,0,0,0,0,0,0,0,0,0],"sum_hessian":[1.869E3,1.858E3,1.1E1,3.29E2,1.529E3,7E0,4E0,4.3E1,2.86E2,6.5E1,1.464E3,1E0,6E0,2E0,2E0,1.8E1,2.5E1,2.4E1,2.62E2,4E0,6.1E1,1.407E3,5.7E1,2E0,1.6E1,1.4E1,1.1E1,6E0,1.8E1,5.5E1,2.07E2,1E0,3E0,5.2E1,9E0,1.391E3,1.6E1,1.1E1,4.6E1,6E0,1E1,1E0,1.3E1,7E0,4E0,5E0,1E0,1.3E1,5E0,4.4E1,1.1E1,4.3E1,1.64E2,1.8E1,3.4E1,7E0,2E0,2.2E1,1.369E3,1.1E1,5E0,8E0,3E0,2.1E1,2.5E1],"tree_param":{"num_deleted":"0","num_feature":"24","num_nodes":"65","size_leaf_vector":"0"}},{"base_weights":[1.2612048E-2,2.4791773E-1,1.0831277E-2,3.6308557E-1,-3.2001495E-2,4.410851E-2,-2.8110123E-3,1.5422678E-1,4.3056408E-1,1.3453293E-1,-1.0726833E-1,2.3917347E-2,2.4150357E-1,-1.2522657E-1,5.0954088E-3,3.8777044E-1,1.3992488E-2,3.412761E-1,-1.0288254E-1,-1.8752994E-1,8.4670015E-2,-2.5247622E-1,8.458195E-3,2.1735607E-1,8.833663E-1,-3.0429712E-1,2.6363095E-2,5.629767E-1,1.0251169E-1,-4.9281615E-1,1.5368629E-1,-2.9907227E-2,-3.082701E-1,-5.1394895E-2,2.415638E-1,-1.5926512E-1,-6.0330266E-1,-6.459163E-3,5.524795E-2,2.7703497E-1,-3.413264E-2,3.2993126E-1,-4.0419638E-1,1.1840775E-1,-9.64942E-3,2.1729565E-1,6.637174E-1,-5.134876E-2,3.3972096E-1,-1.4457417E-1,-5.437331E-1,3.3993387E-1,-2.6049042E-2,2.72096E-1,-6.3603476E-2,-4.8748237E-1,-8.9840494E-2,1.7050476E-1,-2.0255253E-1,-2.5529957E-1,6.465683E-2,-2.3127072E-1,2.3395666E-3,1.8890979E-2,2.4269874E-1],"categories":[],"categories_nodes":[],"categories_segments":[],"categories_sizes":[],"default_left":[true,true,true,true,true,true,true,false,false,false,false,true,true,true,true,true,true,true,true,true,true,true,true,true,false,true,true,true,true,true,true,true,true,true,false,true,false,true,true,false,false,false,false,false,false,false,false,false,false,false,false,false,false,false,false,false,false,false,false,false,false,false,false,false,false],"id":22,"left_children":[1,3,5,7,9,11,13,-1,-1,-1,-1,15,17,19,21,23,25,27,29,31,33,35,37,39,-1,41,43,45,47,49,51,53,55,57,-1,59,-1,61,63,-1,-1,-1,-1,-1,-1,-1,-1,-1,-1,-1,-1,-1,-1,-1,-1,-1,-1,-1,-1,-1,-1,-1,-1,-1,-1],"loss_changes":[7.808924E-1,4.62947E-1,8.431605E-1,7.4530244E-2,7.710372E-2,2.1464672E0,1.2762892E0,0E0,0E0,0E0,0E0,1.7676687E0,1.7531259E0,1.0620592E0,1.0753057E0,9.0593135E-1,1.894054E0,2.006723E0,1.2762768E0,1.170727E0,4.1802216E-1,4.2712963E-1,8.546839E-1,1.7455018E-1,0E0,1.273818E0,1.5325615E0,5.522599E-1,7.4738675E-1,1.0047317E-2,2.766571E-1,3.0224475E-1,1.3262882E0,4.0349627E-1,0E0,3.1756595E-1,0E0,1.8381552E0,2.0126977E0,0E0,0E0,0E0,0E0,0E0,0E0,0E0,0E0,0E0,0E0,0E0,0E0,0E0,0E0,0E0,0E0,0E0,0E0,0E0,0E0,0E0,0E0,0E0,0E0,0E0,0E0],"parents":[2147483647,0,0,1,1,2,2,3,3,4,4,5,5,6,6,11,11,12,12,13,13,14,14,15,15,16,16,17,17,18,18,19,19,20,20,21,21,22,22,23,23,25,25,26,26,27,27,28,28,29,29,30,30,31,31,32,32,33,33,35,35,37,37,38,38],"right_children":[2,4,6,8,10,12,14,-1,-1,-1,-1,16,18,20,22,24,26,28,30,32,34,36,38,40,-1,42,44,46,48,50,52,54,56,58,-1,60,-1,62,64,-1,-1,-1,-1,-1,-1,-1,-1,-1,-1,-1,-1,-1,-1,-1,-1,-1,-1,-1,-1,-1,-1,-1,-1,-1,-1],"split_conditions":[2.01935E1,3.11235E1,2.5687E1,2.9968E1,2.8693E1,2.5118E1,2.18575E1,4.6268035E-2,1.2916923E-1,4.035988E-2,-3.2180503E-2,2.7581E1,2.9581E1,2.82115E1,2.5896E1,3.09315E1,2.7867E1,3.0737999E1,3.07555E1,2.1642E1,2.84385E1,2.7127E1,2.8858501E1,2.7151333E1,2.650099E-1,2.10415E1,2.7203999E1,2.7111E1,3.0983002E1,2.98625E1,2.1172E1,2.4751E1,3.05195E1,2.7934502E1,7.2469145E-2,2.86655E1,-1.809908E-1,2.1382E1,2.9575E1,8.31105E-2,-1.0239793E-2,9.897938E-2,-1.2125892E-1,3.5522327E-2,-2.8948262E-3,6.51887E-2,1.9911523E-1,-1.5404629E-2,1.0191629E-1,-4.337225E-2,-1.6311994E-1,1.01980165E-1,-7.814713E-3,8.162881E-2,-1.9081043E-2,-1.4624472E-1,-2.695215E-2,5.1151432E-2,-6.0765762E-2,-7.6589875E-2,1.939705E-2,-6.9381215E-2,7.0187E-4,5.667294E-3,7.280963E-2],"split_indices":[20,12,12,0,3,12,14,0,0,0,0,6,16,0,12,3,6,18,15,3,11,0,7,13,0,10,9,4,7,2,22,5,18,10,0,1,0,16,22,0,0,0,0,0,0,0,0,0,0,0,0,0,0,0,0,0,0,0,0,0,0,0,0,0,0],"split_type":[0,0,0,0,0,0,0,0,0,0,0,0,0,0,0,0,0,0,0,0,0,0,0,0,0,0,0,0,0,0,0,0,0,0,0,0,0,0,0,0,0,0,0,0,0,0,0,0,0,0,0,0,0,0,0,0,0,0,0,0,0,0,0,0,0],"sum_hessian":[1.869E3,1.3E1,1.856E3,9E0,4E0,5.39E2,1.317E3,3E0,6E0,1E0,3E0,4.9E2,4.9E1,7.9E1,1.238E3,1.2E1,4.78E2,3.8E1,1.1E1,6.1E1,1.8E1,1.5E1,1.223E3,1E1,2E0,1.7E1,4.61E2,1.9E1,1.9E1,4E0,7E0,2.7E1,3.4E1,1E1,8E0,1.3E1,2E0,9.28E2,2.95E2,8E0,2E0,2E0,1.5E1,1.29E2,3.32E2,5E0,1.4E1,1.2E1,7E0,1E0,3E0,3E0,4E0,2E0,2.5E1,1.8E1,1.6E1,4E0,6E0,9E0,4E0,3.4E1,8.94E2,2.48E2,4.7E1],"tree_param":{"num_deleted":"0","num_feature":"24","num_nodes":"65","size_leaf_vector":"0"}},{"base_weights":[9.092839E-3,2.5623718E-1,7.492611E-3,-3.620809E-1,4.161089E-1,4.1358606E-3,1.2641163E-1,2.0575492E-1,5.853119E-1,6.5641245E-3,-3.0767113E-1,-1.109457E-1,1.7991547E-1,2.4493217E-2,2.3710862E-1,9.504577E-3,-1.7292845E-1,-5.6093955E-1,2.5731495E-2,3.4417152E-1,-1.9975556E-1,1.0300702E-1,4.9390054E-1,1.3998935E-2,-8.3074525E-2,-6.2301713E-1,-7.5993575E-2,-7.7209663E-1,-1.5675831E-1,1.8070285E-1,-7.239761E-2,8.445612E-2,-2.9302406E-1,2.7886364E-1,-1.3583877E-2,5.374314E-1,9.4592094E-2,1.2324352E-2,3.2484627E-1,-4.4378057E-1,-2.0940056E-2,1.3586617E-1,-2.0365632E-1,-2.6496887E-2,-1.9134648E-1,1.39865875E-2,-9.749031E-2,1.1874485E-1,7.939339E-3,-4.5110065E-2,3.3661842E-1,-1.6924231E-1,2.3006079E-1],"categories":[],"categories_nodes":[],"categories_segments":[],"categories_sizes":[],"default_left":[true,true,true,false,true,true,true,true,false,true,true,true,true,false,false,true,true,true,true,false,true,true,true,true,true,false,true,false,true,false,true,true,false,true,true,false,false,false,false,false,false,false,false,false,false,false,false,false,false,false,false,false,false],"id":23,"left_children":[1,3,5,-1,7,9,11,13,-1,15,17,19,21,-1,-1,23,25,27,29,-1,31,33,35,37,39,-1,41,-1,43,-1,45,47,-1,49,51,-1,-1,-1,-1,-1,-1,-1,-1,-1,-1,-1,-1,-1,-1,-1,-1,-1,-1],"loss_changes":[7.376417E-1,1.336884E0,7.415556E-1,0E0,2.3549426E-1,1.3717034E0,6.676368E-1,2.8291821E-2,0E0,9.495535E-1,1.196599E0,4.729392E-1,9.633454E-1,0E0,0E0,7.3679876E-1,1.2179041E0,5.6173325E-1,1.1953286E-1,0E0,2.6331964E-1,7.214028E-1,8.822119E-2,8.7414694E-1,1.828514E0,0E0,7.038349E-1,0E0,1.2951933E-2,0E0,1.220162E-2,6.9282334E-3,0E0,2.771393E-1,8.732937E-1,0E0,0E0,0E0,0E0,0E0,0E0,0E0,0E0,0E0,0E0,0E0,0E0,0E0,0E0,0E0,0E0,0E0,0E0],"parents":[2147483647,0,0,1,1,2,2,4,4,5,5,6,6,7,7,9,9,10,10,11,11,12,12,15,15,16,16,17,17,18,18,20,20,21,21,22,22,23,23,24,24,26,26,28,28,30,30,31,31,33,33,34,34],"right_children":[2,4,6,-1,8,10,12,14,-1,16,18,20,22,-1,-1,24,26,28,30,-1,32,34,36,38,40,-1,42,-1,44,-1,46,48,-1,50,52,-1,-1,-1,-1,-1,-1,-1,-1,-1,-1,-1,-1,-1,-1,-1,-1,-1,-1],"split_conditions":[2.00485E1,2.7326E1,3.1547E1,-1.0862427E-1,1.96235E1,3.14165E1,3.01515E1,2.0432E1,1.7559357E-1,3.1630001E1,2.9221E1,2.1932E1,2.5566502E1,7.3479656E-3,7.1132585E-2,3.1137001E1,3.167E1,3.1003E1,2.4498001E1,1.03251465E-1,2.9144001E1,2.2136501E1,2.4905499E1,3.10795E1,2.4918499E1,-1.8690515E-1,2.9182E1,-2.31629E-1,2.28585E1,5.4210857E-2,2.53485E1,2.3245998E1,-8.7907225E-2,2.82155E1,3.1564499E1,1.6122943E-1,2.837763E-2,3.6973057E-3,9.7453885E-2,-1.3313417E-1,-6.282017E-3,4.075985E-2,-6.1096895E-2,-7.949066E-3,-5.740395E-2,4.1959765E-3,-2.9247094E-2,3.5623457E-2,2.3818016E-3,-1.353302E-2,1.00985534E-1,-5.0772693E-2,6.901824E-2],"split_indices":[12,21,18,0,12,18,7,0,0,19,20,0,3,0,0,17,19,17,0,0,7,13,2,17,22,0,21,0,0,0,0,0,0,10,19,0,0,0,0,0,0,0,0,0,0,0,0,0,0,0,0,0,0],"split_type":[0,0,0,0,0,0,0,0,0,0,0,0,0,0,0,0,0,0,0,0,0,0,0,0,0,0,0,0,0,0,0,0,0,0,0,0,0,0,0,0,0,0,0,0,0,0,0,0,0,0,0,0,0],"sum_hessian":[1.869E3,1.1E1,1.858E3,2E0,9E0,1.808E3,5E1,5E0,4E0,1.795E3,1.3E1,9E0,4.1E1,1E0,4E0,1.767E3,2.8E1,7E0,6E0,1E0,8E0,3.4E1,7E0,1.686E3,8.1E1,4E0,2.4E1,4E0,3E0,2E0,4E0,2E0,6E0,1.3E1,2.1E1,6E0,1E0,1.678E3,8E0,1.1E1,7E1,9E0,1.5E1,1E0,2E0,1E0,3E0,1E0,1E0,2E0,1.1E1,1.3E1,8E0],"tree_param":{"num_deleted":"0","num_feature":"24","num_nodes":"53","size_leaf_vector":"0"}},{"base_weights":[6.355508E-3,4.079652E-3,1.5592861E-1,-2.5382953E-2,1.715813E-2,6.923612E-1,8.803529E-2,-2.309565E-1,-8.497151E-3,3.3868575E-1,1.1251921E-2,-7.5165205E-2,2.5701773E-1,-4.72095E-2,-3.2770634E-1,7.287577E-2,-3.2787587E-2,4.8455906E-1,1.0059452E-1,-2.1262197E-3,7.489989E-2,-2.4590047E-1,4.7009997E-2,2.9272428E-1,-8.573055E-2,-1.865468E-1,8.189138E-2,4.2671584E-2,-3.9121398E-1,8.364226E-2,-6.095514E-1,1.0772486E-2,-1.2822439E-1,6.579792E-1,4.080696E-2,-4.9996376E-2,4.6863875E-1,-2.3868799E-1,3.4694541E-3,1.9777676E-1,2.2549914E-2,-2.8630066E-1,-2.1949768E-2,1.4552231E-1,-6.0904313E-2,1.5050207E-1,4.0986285E-1,2.2173563E-2,-2.5981584E-1,1.6077614E-1,-1.2947018E-1,1.884613E-1,-2.7024364E-1,2.3816204E-1,-4.2893302E-1,-3.2274514E-1,1.004379E-1,-3.3900377E-3,2.4378085E-1,-2.3261964E-1,3.1906202E-2,1.0043907E-1,7.087682E-1,1.2909E-1,-6.107839E-2,-2.8227997E-1,7.447815E-2,2.984562E-2,-4.0179786E-1,8.014844E-1,1.1027073E-3,-1.5411703E-1,2.3617473E-1,2.6956788E-1,-4.0773666E-3,-1.4808273E-1,4.6575546E-2,3.60775E-3,1.7438316E-1],"categories":[],"categories_nodes":[],"categories_segments":[],"categories_sizes":[],"default_left":[true,true,true,true,true,false,true,true,true,true,true,true,true,true,true,true,true,true,true,true,true,true,true,true,false,true,true,true,true,true,false,true,true,true,true,true,false,true,true,true,true,false,false,false,true,true,false,false,false,false,false,false,false,false,false,false,false,false,false,false,false,false,false,false,false,false,false,false,false,false,false,false,false,false,false,false,false,false,false],"id":24,"left_children":[1,3,5,7,9,-1,11,13,15,17,19,21,23,25,27,29,31,33,35,37,39,41,43,45,-1,47,49,51,53,55,-1,57,59,61,63,65,-1,67,69,71,73,-1,-1,-1,75,77,-1,-1,-1,-1,-1,-1,-1,-1,-1,-1,-1,-1,-1,-1,-1,-1,-1,-1,-1,-1,-1,-1,-1,-1,-1,-1,-1,-1,-1,-1,-1,-1,-1],"loss_changes":[6.359247E-1,7.105914E-1,9.5881313E-1,1.9662501E0,2.4212244E0,0E0,7.363472E-1,7.489612E-1,1.0400959E0,7.500725E-1,1.0687811E0,3.0359444E-1,1.8419415E-1,3.0309367E-1,6.753049E-1,9.4001293E-1,1.685061E0,1.0505276E0,5.7767135E-1,1.3748521E0,1.3978473E0,4.8001677E-2,1.0454093E-1,1.3823128E-1,0E0,1.2810299E-1,1.7087458E-1,2.790296E-1,6.7190266E-1,8.514805E-1,0E0,9.215227E-1,2.1304655E0,2.119813E-1,5.2858345E-2,2.523308E-1,0E0,1.0632036E0,1.916146E0,9.1467905E-1,1.0140212E0,0E0,0E0,0E0,5.3746656E-2,2.3926854E-2,0E0,0E0,0E0,0E0,0E0,0E0,0E0,0E0,0E0,0E0,0E0,0E0,0E0,0E0,0E0,0E0,0E0,0E0,0E0,0E0,0E0,0E0,0E0,0E0,0E0,0E0,0E0,0E0,0E0,0E0,0E0,0E0,0E0],"parents":[2147483647,0,0,1,1,2,2,3,3,4,4,6,6,7,7,8,8,9,9,10,10,11,11,12,12,13,13,14,14,15,15,16,16,17,17,18,18,19,19,20,20,21,21,22,22,23,23,25,25,26,26,27,27,28,28,29,29,31,31,32,32,33,33,34,34,35,35,37,37,38,38,39,39,40,40,44,44,45,45],"right_children":[2,4,6,8,10,-1,12,14,16,18,20,22,24,26,28,30,32,34,36,38,40,42,44,46,-1,48,50,52,54,56,-1,58,60,62,64,66,-1,68,70,72,74,-1,-1,-1,76,78,-1,-1,-1,-1,-1,-1,-1,-1,-1,-1,-1,-1,-1,-1,-1,-1,-1,-1,-1,-1,-1,-1,-1,-1,-1,-1,-1,-1,-1,-1,-1,-1,-1],"split_conditions":[3.1788E1,2.6338E1,2.46955E1,2.3742E1,2.3604E1,2.0770836E-1,2.2826E1,2.4692001E1,2.9258E1,2.9542E1,2.8836546E1,2.7682499E1,2.564E1,2.2751999E1,2.70485E1,3.1280499E1,2.373E1,2.8583183E1,2.45615E1,2.6653496E1,2.2322E1,3.0293E1,2.9071E1,2.2831501E1,-2.5719168E-2,2.39645E1,2.7435501E1,2.81025E1,1.8881E1,2.74985E1,-1.8286544E-1,2.9558E1,2.8546001E1,2.13095E1,2.7461498E1,3.0575E1,1.4059164E-1,2.72835E1,2.669149E1,2.74035E1,2.53345E1,-8.58902E-2,-6.5849307E-3,4.3656696E-2,3.09205E1,2.8879E1,1.2295886E-1,6.6520693E-3,-7.7944756E-2,4.8232842E-2,-3.8841058E-2,5.653839E-2,-8.10731E-2,7.144862E-2,-1.2867992E-1,-9.682355E-2,3.0131372E-2,-1.0170114E-3,7.313426E-2,-6.978589E-2,9.5718615E-3,3.0131722E-2,2.1263047E-1,3.8727E-2,-1.8323516E-2,-8.468399E-2,2.2343446E-2,8.953686E-3,-1.2053936E-1,2.4044533E-1,3.308122E-4,-4.623511E-2,7.085242E-2,8.087037E-2,-1.22321E-3,-4.442482E-2,1.3972664E-2,1.082325E-3,5.2314952E-2],"split_indices":[23,7,9,4,20,0,7,15,0,15,23,9,7,18,2,2,7,11,9,19,16,1,15,19,0,3,14,0,18,12,0,3,17,9,10,13,0,7,19,0,0,0,0,0,0,2,0,0,0,0,0,0,0,0,0,0,0,0,0,0,0,0,0,0,0,0,0,0,0,0,0,0,0,0,0,0,0,0,0],"split_type":[0,0,0,0,0,0,0,0,0,0,0,0,0,0,0,0,0,0,0,0,0,0,0,0,0,0,0,0,0,0,0,0,0,0,0,0,0,0,0,0,0,0,0,0,0,0,0,0,0,0,0,0,0,0,0,0,0,0,0,0,0,0,0,0,0,0,0,0,0,0,0,0,0,0,0,0,0,0,0],"sum_hessian":[1.869E3,1.842E3,2.7E1,5.66E2,1.276E3,2E0,2.5E1,4.2E1,5.24E2,2.2E1,1.254E3,1.3E1,1.2E1,1.5E1,2.7E1,1.2E2,4.04E2,1.3E1,9E0,1.037E3,